
\data\
ngram 1=31238

\1-grams:
-1.092046	</s>
-99	<s>
-4.338244	అ
-4.991457	అంక
-4.991457	అంకాపూర్
-4.991457	అంకారా
-4.815365	అంకితమని
-4.991457	అంకితమిస్తున్నట్టు
-4.815365	అంకురం
-4.593516	అంకురార్పణ
-4.815365	అంకుల్
-4.815365	అంకెల
-4.815365	అంక్షలను
-4.815365	అంగడి
-4.991457	అంగనవాడీ
-4.815365	అంగన్
-4.991457	అంగన్వాడీ
-4.991457	అంగబంగాలు
-4.991457	అంగబలం
-4.447388	అంగరంగ
-4.991457	అంగరంగా
-4.991457	అంగవైకల్యాన్ని
-4.815365	అంగారక
-4.991457	అంగీకరించ
-4.991457	అంగీకరించడం
-4.991457	అంగీకరించడంతో
-4.991457	అంగీకరించబోమని
-4.815365	అంగీకరించరన్న
-4.991457	అంగీకరించలేదు
-4.991457	అంగీకరించాడని
-4.815365	అంగీకరించాయి
-4.991457	అంగీకరించారని
-4.514335	అంగీకరించారు
-4.815365	అంగీకరించాలని
-4.991457	అంగీకరించాల్సిందే
-4.991457	అంగీకరించి
-4.991457	అంగీకరించిందనీ
-4.593516	అంగీకరించింది
-4.690426	అంగీకరించినట్లు
-4.991457	అంగీకరించినట్లుగా
-4.593516	అంగీకరించే
-4.991457	అంగీకరించేది
-4.991457	అంగీకరిస్తామని
-4.991457	అంగీకరిస్తారని
-4.991457	అంగీకారంతో
-4.690426	అంగీకారంతోనే
-4.991457	అంగులూరు
-4.146358	అంచనా
-4.815365	అంచనాకు
-4.991457	అంచనాతో
-4.815365	అంచనాలకు
-4.991457	అంచనాలను
-4.178543	అంచనాలు
-4.991457	అంచనావేస్తూ
-4.991457	అంచును
-4.991457	అంజనాద్రి
-4.815365	అంజయ్య
-4.991457	అంజారా
-4.815365	అంటరాని
-4.991457	అంటరానితనానికి
-4.991457	అంటారన్నారట
-4.991457	అంటారా
-4.251094	అంటారు
-4.991457	అంటి
-4.991457	అంటించండని
-4.991457	అంటించుకొని
-4.991457	అంటుండంలోని
-4.991457	అంటుందా
-4.815365	అంటుంది
-4.991457	అంటుంన్నారు
-4.815365	అంటుకుంటుంది
-4.991457	అంటుకుని
-4.991457	అంటుకున్నట్టుగా
-4.991457	అంటునారు
-4.514335	అంటున్న
-4.815365	అంటున్నా
-4.815365	అంటున్నాడు
-4.991457	అంటున్నాయి
-4.991457	అంటున్నాయీ
-4.514335	అంటున్నారని
-3.051937	అంటున్నారు
-4.815365	అంటున్నారో
-4.991457	అంటున్నావని
-4.991457	అంటువ్యాధులు
-3.712703	అంటూ
-4.815365	అంటూనే
-3.690426	అంటే
-4.991457	అంటేనే
-3.712703	అండగా
-4.815365	అండదండలు
-4.991457	అండమాన్
-4.991457	అండర్సన్
-4.991457	అండుగంటిపోతున్నాయని
-4.593516	అండ్
-3.830088	అంత
-4.991457	అంతం
-4.690426	అంతంత
-4.690426	అంతక
-4.514335	అంతకంటే
-4.178543	అంతకు
-4.338244	అంతకుముందు
-4.991457	అంతగనం
-4.593516	అంతగా
-4.991457	అంతటా
-4.514335	అంతటి
-4.815365	అంతటినీ
-4.815365	అంతమేర
-4.991457	అంతమొందించాలని
-4.991457	అంతరాత్మ
-4.447388	అంతరాయం
-4.991457	అంతరాల్లో
-4.991457	అంతరాష్ట్ర
-4.991457	అంతరించి
-4.991457	అంతరించిపోతున్న
-4.815365	అంతరిక్ష
-4.991457	అంతరిక్షం
-4.991457	అంతరిక్షంలోకి
-4.593516	అంతర్గత
-4.815365	అంతర్గతంగా
-3.787337	అంతర్జాతీయ
-4.991457	అంతర్యం
-4.593516	అంతలోనే
-4.991457	అంతస్తుల
-4.991457	అంతస్తులో
-4.991457	అంతస్తులోని
-4.991457	అంతస్తులోనుంచి
-4.991457	అంతస్తుల్లో
-4.991457	అంతస్థుల
-3.930758	అంతా
-4.991457	అంతిమ
-4.690426	అంతిమంగా
-4.991457	అంతిమయాత్ర
-4.991457	అంతిరెడ్డి
-4.991457	అంతు
-4.991457	అంతుచిక్కని
-4.991457	అంతుచూస్తానని
-4.991457	అంతుబట్టడం
-4.815365	అంతులేని
-4.991457	అంతెత్తు
-4.062037	అంతే
-4.815365	అంతేకాక
-4.338244	అంతేకాకుండా
-4.991457	అంతేకాద
-3.815365	అంతేకాదు
-4.815365	అంతేకాని
-4.146358	అంతేగాక
-4.815365	అంతేనా
-4.815365	అంత్యక్రియల
-4.991457	అంత్యక్రియలకు
-4.991457	అంత్యక్రియలను
-4.178543	అంత్యక్రియలు
-4.690426	అంత్యక్రియల్లో
-4.815365	అందంగా
-4.991457	అందక
-4.815365	అందకనే
-4.991457	అందకపోగా
-4.815365	అందకపోతే
-4.593516	అందకపోవడంతో
-4.991457	అందకారమయ్యే
-4.991457	అందకుండా
-4.815365	అందగానే
-4.991457	అందచేసి
-4.991457	అందచేసిన
-4.991457	అందజేయనున్నారు
-4.991457	అందజేశాడు
-4.991457	అందజేశామని
-4.593516	అందజేశాయి
-4.251094	అందజేశారు
-4.991457	అందజేసారు
-4.991457	అందజేసింది
-4.815365	అందజేసిన
-4.991457	అందజేస్తం
-4.815365	అందజేస్తారు
-4.991457	అందజేస్తున్నారు
-4.991457	అందజేస్తే
-4.815365	అందటంలేదని
-4.514335	అందడం
-4.991457	అందడంతో
-4.991457	అందడంలో
-4.815365	అందని
-4.991457	అందనున్నదన్నారు
-4.991457	అందబాటులోకి
-4.447388	అందమైన
-4.338244	అందరం
-4.088367	అందరి
-4.815365	అందరికి
-3.761008	అందరికీ
-4.815365	అందరితో
-4.447388	అందరినీ
-4.991457	అందరిపై
-4.815365	అందరిపైనా
-4.991457	అందరిలో
-4.991457	అందరివాడని
-4.514335	అందరు
-3.724285	అందరూ
-4.514335	అందర్నీ
-4.991457	అందలేదని
-4.991457	అందలేదనీ
-4.447388	అందలేదు
-4.991457	అందానికి
-4.815365	అందాల
-4.690426	అందాలు
-4.690426	అందాల్సిందేనన్నారు
-4.690426	అంది
-4.991457	అందించ
-4.991457	అందించకపోవడంపై
-4.815365	అందించడం
-4.690426	అందించడంతో
-4.815365	అందించడంలో
-4.514335	అందించడమే
-4.991457	అందించనున్నారు
-4.991457	అందించలేక
-4.991457	అందించలేదని
-4.815365	అందించాడు
-4.991457	అందించాయనున్నాయి
-4.815365	అందించారని
-4.815365	అందించారన్నారు
-4.013733	అందించారు
-4.116395	అందించాలని
-4.815365	అందించాలన్న
-4.690426	అందించాల్సిన
-4.991457	అందించి
-4.593516	అందించింది
-4.447388	అందించిన
-4.593516	అందించినట్లు
-4.815365	అందించినా
-4.338244	అందించే
-4.991457	అందించేం
-4.178543	అందించేందుకు
-4.991457	అందించేల
-4.991457	అందించేలా
-4.991457	అందిందని
-4.593516	అందింది
-4.815365	అందితే
-4.815365	అందిన
-4.991457	అందినకాడికి
-4.991457	అందినట్లు
-4.991457	అందిపట్టి
-4.991457	అందిపుచ్చుకోవడమే
-4.991457	అందిరిలోనూ
-4.991457	అందిస్తాం
-4.815365	అందిస్తానని
-4.514335	అందిస్తామని
-4.815365	అందిస్తామన్నారు
-4.815365	అందిస్తారు
-4.815365	అందిస్తుందని
-4.593516	అందిస్తుంది
-4.815365	అందిస్తున్న
-4.815365	అందిస్తున్నామన్నారు
-4.815365	అందిస్తున్నారన్న
-4.338244	అందిస్తున్నారు
-4.991457	అందిస్తూ
-4.815365	అందిస్తోందట
-4.991457	అందిస్తోంది
-4.991457	అందుకని
-4.991457	అందుకనుగుణంగా
-3.459977	అందుకు
-4.991457	అందుకుంటాడని
-4.991457	అందుకుంటామని
-4.991457	అందుకుంటున్నాడు
-4.815365	అందుకుంది
-4.991457	అందుకుని
-4.991457	అందుకునే
-4.991457	అందుకునేందుకు
-3.830088	అందుకున్న
-4.991457	అందుకున్నాడు
-3.639274	అందుకే
-4.991457	అందుకోగలడనే
-4.690426	అందుకోవడం
-4.991457	అందుకోవాల్సి
-4.815365	అందుకోసం
-4.815365	అందుతుందని
-4.991457	అందుతుందన్నారు
-4.991457	అందుతుంది
-4.815365	అందుతున్న
-4.815365	అందుతోందని
-3.830088	అందుబాటులో
-4.178543	అందుబాటులోకి
-4.991457	అందుబాటులోనికి
-3.659018	అందులో
-4.690426	అందులోకి
-4.690426	అందులోని
-4.815365	అందులోనూ
-4.991457	అందులోనే
-4.991457	అందులోభాగంగా
-4.062037	అందువల్ల
-4.514335	అందువల్లే
-4.991457	అందెశ్రీ
-4.514335	అందే
-4.389397	అందేలా
-4.991457	అందేలోపు
-4.991457	అందోల్
-4.991457	అందోళ
-4.991457	అందోళన
-4.991457	అందోళనకారులు
-4.991457	అంధ్రప్రదేశ్
-4.991457	అంపైర్
-4.690426	అంబటి
-4.991457	అంబడిపల్లి
-4.991457	అంబాని
-4.991457	అంబానీ
-4.991457	అంబారిపై
-4.991457	అంబారీపై
-4.991457	అంబారుపేట
-4.991457	అంబేడ్కర్
-4.593516	అంబేద్కర్
-3.773973	అంశం
-4.991457	అంశంగా
-3.861123	అంశంపై
-4.991457	అంశంపైకూడా
-4.991457	అంశంమని
-4.593516	అంశంలో
-4.991457	అంశంలోనూ
-4.991457	అంశగా
-4.815365	అంశమని
-4.991457	అంశము
-4.815365	అంశమై
-4.690426	అంశానికి
-3.970267	అంశాన్ని
-4.146358	అంశాల
-4.690426	అంశాలకు
-4.991457	అంశాలతో
-4.037214	అంశాలను
-4.991457	అంశాలన్నింటినీ
-3.912275	అంశాలపై
-4.991457	అంశాలపైనా
-4.991457	అంశాలలో
-4.389397	అంశాలు
-4.991457	అంశాలేమీ
-4.815365	అంశాల్లో
-4.991457	అకట్టుకుంటున్నారు
-4.815365	అకస్మా
-4.690426	అకస్మాత్తుగా
-4.991457	అకస్మిక
-4.991457	అకాడమీ
-4.991457	అకాడమీని
-4.991457	అకాడమీలో
-4.815365	అకాల
-4.991457	అకుంఠిత
-4.991457	అకౌంట్లు
-4.593516	అక్క
-4.815365	అక్కకు
-3.435154	అక్కడ
-4.447388	అక్కడకు
-4.815365	అక్కడక్కడ
-4.251094	అక్కడక్కడా
-3.584916	అక్కడి
-4.251094	అక్కడికక్కడే
-3.912275	అక్కడికి
-4.815365	అక్కడికెళ్లాక
-4.991457	అక్కడికే
-4.991457	అక్కడిక్కడే
-4.593516	అక్కడున్న
-4.088367	అక్కడే
-4.815365	అక్కన్న
-4.991457	అక్కలపై
-4.991457	అక్కలు
-4.815365	అక్కాచెల్లెళ్లు
-4.815365	అక్కినేని
-4.514335	అక్తర్
-4.991457	అక్బరుద్దీన్
-4.815365	అక్మల్
-3.991457	అక్రమ
-4.389397	అక్రమంగా
-4.991457	అక్రమార్కులను
-4.991457	అక్రమార్కులు
-4.991457	అక్రమార్జన
-4.389397	అక్రమాలకు
-4.593516	అక్రమాలను
-4.447388	అక్రమాలపై
-4.338244	అక్రమాలు
-4.991457	అక్రమాలేనని
-4.991457	అక్రమించుకునే
-4.991457	అక్రమ్
-4.815365	అక్వా
-4.991457	అక్షయ
-4.991457	అక్షయపాత్ర
-4.690426	అక్షయ్
-4.991457	అక్షర
-4.991457	అక్షరాన్ని
-4.991457	అక్షరాల
-4.690426	అక్షరాలతో
-4.991457	అక్షరాలా
-4.991457	అక్షరాస్యత
-4.815365	అక్షిత్
-4.991457	అఖండ
-4.116395	అఖిల
-4.991457	అఖిలతో
-4.338244	అఖిలపక్ష
-4.690426	అఖిలపక్షం
-4.690426	అఖిలప్రియ
-4.991457	అఖిలప్రియకు
-4.991457	అఖిలభారత
-4.991457	అఖిలేష్
-4.815365	అగమేఘాల
-4.991457	అగమ్య
-4.991457	అగమ్యగోచనంగా
-4.815365	అగౌరపరచడమేనని
-4.991457	అగ్గిపుల్ల
-4.178543	అగ్ని
-4.815365	అగ్నిగుండంలో
-4.815365	అగ్నిగుండమైంది
-4.991457	అగ్నిగోళాలు
-4.815365	అగ్నిప్రమాద
-4.593516	అగ్నిప్రమాదం
-4.991457	అగ్నిప్రమాదంఅనంతపురం
-4.991457	అగ్నిప్రమాదంలో
-4.062037	అగ్నిమాపక
-4.991457	అగ్నిమాపకశాఖ
-4.991457	అగ్రకుల
-4.991457	అగ్రజ్వలలు
-4.690426	అగ్రనేత
-4.991457	అగ్రవర్ణాలకు
-4.593516	అగ్రస్థానంలో
-4.991457	అగ్రహ
-4.514335	అగ్రిగోల్డ్
-4.815365	అఘాయిత్యం
-4.514335	అఘాయిత్యానికి
-4.991457	అఘోరా
-4.815365	అఘోరాలు
-4.991457	అచె
-4.991457	అచెన్న్నాయుడు
-4.991457	అచ్చం
-4.593516	అచ్చంపేట
-4.991457	అచ్చు
-4.991457	అచ్చెన్నా
-4.213305	అచ్చెన్నాయుడు
-4.991457	అచ్నెన్నాయుడు
-4.991457	అజంగఢ్
-4.815365	అజమాయీషి
-4.991457	అజయంగా
-4.991457	అజయ్
-4.991457	అజరామని
-4.991457	అజహరుద్దీన్
-4.991457	అజాగ్రత్త
-4.991457	అజింక్యా
-4.991457	అజీమ్
-4.991457	అజ్ఞాతంలో
-4.815365	అజ్ఞాతంలోకి
-4.991457	అజ్ఞాతవాసంగా
-4.991457	అజ్యింకె
-4.991457	అటకెక్కిచిన
-4.815365	అటగాడు
-4.991457	అటల్
-4.062037	అటవీ
-4.991457	అటాప్సీ
-4.815365	అటార్నీ
-4.088367	అటు
-4.991457	అటుంచి
-4.991457	అటున్నట్లు
-4.991457	అటువంటప్పుడు
-4.213305	అటువంటి
-4.991457	అటువంటిదే
-4.991457	అటువంటిదేమీ
-4.991457	అటువైపు
-4.991457	అటువైపే
-4.991457	అటూ
-4.815365	అటోలో
-4.991457	అట్టకక్కించి
-4.815365	అట్టడుగున
-4.690426	అట్టహాసంగా
-4.991457	అట్టాడ
-4.815365	అట్టుడుకుతోంది
-4.991457	అట్లాగ్
-4.991457	అట్లూరి
-4.815365	అట్లెటికో
-4.991457	అట్లెటిక్క్
-4.991457	అడగడానికి
-4.991457	అడగను
-4.815365	అడగలేదని
-4.991457	అడగాలని
-4.991457	అడగాలన్నదానిపై
-4.991457	అడగాలో
-4.991457	అడగొచ్చు
-4.991457	అడగ్గా
-4.991457	అడనివాల్సిన
-4.991457	అడపాదడపా
-4.991457	అడవి
-4.991457	అడవిలేదని
-4.991457	అడవిలోకి
-4.690426	అడవుల
-4.815365	అడవులు
-4.991457	అడవుల్లో
-4.991457	అడవుల్లోని
-4.991457	అడాసియన్
-4.593516	అడిగాడు
-4.815365	అడిగామని
-4.690426	అడిగారని
-3.877513	అడిగారు
-3.861123	అడిగి
-4.593516	అడిగింది
-4.514335	అడిగితే
-4.146358	అడిగిన
-4.991457	అడిగినప్పుడు
-4.815365	అడిగే
-4.991457	అడిగేవాడట
-4.991457	అడుగంటడంతో
-4.991457	అడుగంటి
-4.815365	అడుగంటిన
-4.991457	అడుగంటిపోవడంతో
-4.690426	అడుగడుగునా
-4.292487	అడుగు
-4.991457	అడుగుతాయని
-4.991457	అడుగుతారు
-4.815365	అడుగుతున్నాం
-4.991457	అడుగుతున్నామని
-4.690426	అడుగుతున్నారని
-4.593516	అడుగుతున్నారు
-4.991457	అడుగుదూరంలో
-4.991457	అడుగుపెట్టగలిగామని
-4.991457	అడుగుపెట్టలేని
-4.991457	అడుగుపెట్టలేవని
-4.593516	అడుగుల
-4.991457	అడుగులకు
-4.088367	అడుగులు
-4.514335	అడ్డం
-4.815365	అడ్డంకి
-4.991457	అడ్డంకిగా
-4.991457	అడ్డంకులను
-4.389397	అడ్డంకులు
-4.389397	అడ్డంగా
-4.815365	అడ్డగించి
-4.991457	అడ్డగిస్తున్నారని
-4.991457	అడ్డదారిగా
-4.991457	అడ్డదారుల్లో
-4.815365	అడ్డాగా
-4.213305	అడ్డు
-4.690426	అడ్డుకట్ట
-4.593516	అడ్డుకుంటామని
-4.815365	అడ్డుకుంటామన్న
-4.815365	అడ్డుకుంటున్నదని
-4.991457	అడ్డుకుంటున్నామని
-4.593516	అడ్డుకుంటున్నారని
-4.991457	అడ్డుకుంటున్నారే
-4.815365	అడ్డుకుంటే
-4.815365	అడ్డుకుని
-4.514335	అడ్డుకునే
-4.815365	అడ్డుకునేందుకు
-4.815365	అడ్డుకున్న
-4.991457	అడ్డుకున్నారని
-4.292487	అడ్డుకున్నారు
-4.991457	అడ్డుకొనే
-4.991457	అడ్డుకోకపోవడం
-4.514335	అడ్డుకోవడం
-4.991457	అడ్డుకోవడంతో
-4.991457	అడ్డుకోవడమే
-4.447388	అడ్డుకోవడానికి
-4.593516	అడ్డుగా
-4.991457	అడ్డుగోడలను
-4.815365	అడ్డుగోడలుగానే
-4.991457	అడ్డుతగిలారు
-4.815365	అడ్డుపడినా
-4.991457	అడ్డుపడుతున్నాడంటూ
-4.991457	అడ్డుపడుతున్నారనే
-4.991457	అడ్డుపడేందుకు
-4.991457	అడ్డుపుల్ల
-4.991457	అడ్డుపెట్టుకుని
-4.991457	అడ్డుపెట్టుకొని
-4.815365	అడ్డూఅదుపూ
-4.991457	అణగదొక్కే
-4.991457	అణచ
-4.991457	అణచి
-4.991457	అణచివేయాలని
-4.991457	అణచివేశారని
-4.815365	అణచివేసేందుకు
-4.991457	అణచివేస్తూ
-4.991457	అణా
-4.991457	అణిచివేసే
-4.593516	అణు
-4.815365	అణుపార్కు
-4.991457	అణువిద్యుత్
-4.991457	అణువిద్యుత్కేంద్రాల
-4.815365	అణ్వస్త్ర
-4.991457	అణ్వాయుధ
-4.088367	అతడి
-4.991457	అతడికి
-4.178543	అతడిని
-4.690426	అతడిపై
-3.991457	అతడు
-4.815365	అతడెవరో
-4.991457	అతడే
-4.991457	అతడ్ని
-4.991457	అతనన్నాడు
-3.576483	అతని
-4.251094	అతనికి
-4.593516	అతనితో
-4.815365	అతనితోనే
-4.213305	అతనిని
-4.991457	అతనిపై
-4.815365	అతనిలోని
-3.493146	అతను
-4.991457	అతనూ
-4.815365	అతనే
-4.389397	అతన్ని
-4.991457	అతలాకుతలమయ్యాయి
-4.088367	అతి
-4.447388	అతిగా
-4.213305	అతిథి
-3.930758	అతిథిగా
-4.815365	అతిథులని
-4.690426	అతిథులు
-4.815365	అతిథులుగా
-4.991457	అతిధి
-4.690426	అతిపెద్ద
-4.991457	అతిపెద్దది
-4.991457	అతిపెద్దదిగా
-4.991457	అతిశయోక్తి
-4.292487	అతీతంగా
-4.815365	అతీతులు
-4.593516	అత్త
-4.815365	అత్తగారి
-4.991457	అత్తగారింట్లో
-4.991457	అత్తమామలతో
-4.991457	అత్తమామలు
-4.991457	అత్తమామలేనని
-4.815365	అత్తవారి
-4.991457	అత్తవారింట్లోకి
-4.991457	అత్తా
-4.815365	అత్తాకోడళ్ల
-4.991457	అత్తామామలను
-4.991457	అత్తామామలు
-4.991457	అత్తింటి
-4.991457	అత్తింటికి
-4.991457	అత్తింటివారు
-3.514335	అత్యంత
-4.991457	అత్యతమ
-4.514335	అత్యధిక
-4.690426	అత్యధికంగా
-4.991457	అత్యరం
-4.690426	అత్యవసర
-4.815365	అత్యవసరంగా
-4.991457	అత్యవసరాలేమిటో
-4.991457	అత్యా
-4.991457	అత్యాచార
-4.037214	అత్యాచారం
-4.991457	అత్యాచారయత్నానికి
-3.991457	అత్యాచారానికి
-4.690426	అత్యాచారాలకు
-4.389397	అత్యాచారాలు
-4.815365	అత్యాధునిక
-4.991457	అత్యావశ్యంగా
-4.991457	అత్యాశకు
-4.690426	అత్యుత్తమ
-4.991457	అత్యుత్తమం
-4.690426	అత్యుత్తమంగా
-4.991457	అత్యుత్తమైందని
-4.991457	అత్యుత్సాహంతో
-4.815365	అత్యున్నత
-4.991457	అథవాలే
-4.991457	అథారిటిని
-4.991457	అథారిటీలను
-4.991457	అథ్లెట్
-4.991457	అథ్లెట్ల
-4.815365	అదంతా
-4.447388	అదనంగా
-4.037214	అదనపు
-4.991457	అదను
-3.357988	అది
-4.991457	అదికారులకు
-4.991457	అదిగో
-4.991457	అదితి
-4.991457	అదిరిపోయే
-4.690426	అదీ
-4.991457	అదీగాక
-4.991457	అదుకోవడానికి
-4.991457	అదునని
-4.593516	అదునుగా
-4.251094	అదుపు
-4.991457	అదుపుచేయలేకపోతోందని
-4.815365	అదుపుచేసే
-4.991457	అదుపుతప్పి
-4.593516	అదుపులో
-3.584916	అదుపులోకి
-4.815365	అదృశ్యం
-4.991457	అదృశ్యమయ్యాడు
-4.815365	అదృశ్యమైంది
-4.593516	అదృష్టం
-4.593516	అదృష్టంగా
-3.192116	అదే
-4.991457	అదేదో
-4.815365	అదేనని
-4.991457	అదేమంటే
-4.991457	అదేమాదిరిగా
-4.447388	అదేవిధంగా
-4.991457	అదేశిస్తే
-4.991457	అదేసిన్చినట్టులు
-4.991457	అద్దం
-4.593516	అద్దంకి
-4.991457	అద్దంకిలో
-4.991457	అద్దంపట్టే
-4.593516	అద్దాలు
-4.991457	అద్దులకు
-4.251094	అద్దె
-4.514335	అద్దెకు
-4.991457	అద్దెకుంటున్నారు
-4.991457	అద్దెలు
-4.815365	అద్దేపల్లి
-4.991457	అద్నాన్
-4.389397	అద్భుత
-4.991457	అద్భుతం
-4.514335	అద్భుతంగా
-4.991457	అద్భుతమంటూ
-4.991457	అద్భుతమని
-4.389397	అద్భుతమైన
-4.991457	అద్భుతానికి
-4.815365	అద్భుతాలు
-4.991457	అద్యక్షుడు
-4.991457	అధగమిస్తూ
-4.815365	అధారంగా
-4.815365	అధి
-4.013733	అధిక
-4.013733	అధికంగా
-4.991457	అధికంచేసి
-4.991457	అధికమయ్యే
-4.991457	అధికమించేందుకు
-4.991457	అధికవర్గాలు
-4.991457	అధికశాతం
-3.507157	అధికార
-3.912275	అధికారం
-4.815365	అధికారంగా
-4.991457	అధికారంలొకి
-4.037214	అధికారంలో
-3.593516	అధికారంలోకి
-4.991457	అధికారంలోకొచ
-4.815365	అధికారంలోకొచ్చాక
-4.815365	అధికారపక్ష
-4.991457	అధికారయంత్రాంగం
-4.991457	అధికారలు
-4.690426	అధికారవర్గాల్లో
-4.690426	అధికారానికి
-4.514335	అధికారాన్ని
-4.292487	అధికారి
-4.292487	అధికారిక
-4.088367	అధికారికంగా
-4.991457	అధికారిని
-4.991457	అధికారినైనా
-4.991457	అధికారిపై
-3.787337	అధికారుల
-4.815365	అధికారులంటున్నారు
-3.724285	అధికారులకు
-3.877513	అధికారులతో
-3.690426	అధికారులను
-4.251094	అధికారులపై
-4.991457	అధికారులలో
-2.914088	అధికారులు
-4.815365	అధికారులూ
-4.447388	అధికారులే
-4.991457	అధికారుల్లో
-4.991457	అధికార్లతోపాటు
-4.991457	అధికార్లు
-4.991457	అధిగమించడానికి
-4.991457	అధిగమించలేకపోయాడు
-4.991457	అధిగమించామని
-4.815365	అధిగమించి
-4.991457	అధిగమించే
-4.991457	అధిగమించేందుకు
-4.991457	అధిగమిస్తారనేది
-4.815365	అధిగమిస్తారనేదీ
-4.991457	అధిగమిస్తూ
-4.991457	అధినాయకత్వం
-4.991457	అధినాయకత్వంతో
-3.773973	అధినేత
-4.991457	అధిపతి
-4.991457	అధిపతులతో
-4.991457	అధిపత్యంలో
-4.991457	అధిమించే
-3.815365	అధిష్టానం
-4.991457	అధిష్టానంపై
-4.991457	అధిష్టానమూ
-4.690426	అధిష్టానవర్గం
-4.991457	అధిష్టానవర్గంవద్ద
-4.447388	అధిష్టానానికి
-4.690426	అధిష్టానాన్ని
-4.815365	అధిష్ఠాన
-4.593516	అధిష్ఠానం
-4.991457	అధిష్ఠానమే
-4.991457	అధిష్ఠానవర్గం
-4.991457	అధిష్ఠానాన్ని
-4.690426	అధునాతన
-4.991457	అధునిత
-4.037214	అధ్యక్ష
-4.389397	అధ్యక్షత
-4.292487	అధ్యక్షతన
-4.991457	అధ్యక్షుడి
-4.514335	అధ్యక్షుడిగా
-3.459977	అధ్యక్షుడు
-4.815365	అధ్యక్షుడుగా
-4.815365	అధ్యక్షుడే
-4.815365	అధ్యక్షురాలిగా
-4.338244	అధ్యక్షురాలు
-4.991457	అధ్యక్షురాలుగా
-3.690426	అధ్యక్షులు
-4.991457	అధ్యక్షులుగా
-4.815365	అధ్యక్ష్యులు
-4.991457	అధ్యయన
-4.213305	అధ్యయనం
-4.991457	అధ్యయనపూర్వక
-4.690426	అధ్యయనానికి
-4.690426	అధ్యయనాలు
-4.991457	అధ్యాత్మిక
-4.991457	అధ్యాపక
-4.991457	అధ్యాపకులను
-4.991457	అధ్యాపకులనూ
-4.991457	అధ్యాపకులు
-4.815365	అధ్యాపకులుగా
-4.991457	అధ్వానంగా
-4.690426	అనంతగిరి
-4.991457	అనంతగిరికి
-3.544298	అనంతపురం
-4.991457	అనంతపురంలొ
-4.514335	అనంతపురంలో
-4.815365	అనంతపురంలోని
-4.991457	అనంతపురంలోనే
-4.991457	అనంతపురానికి
-4.991457	అనంతపురాల్లో
-4.991457	అనంతమైన
-4.690426	అనంతర
-3.05444	అనంతరం
-4.991457	అనంతరామయ్య
-4.815365	అనంతలో
-4.991457	అనకపోతే
-4.991457	అనకాపల్లిలో
-4.991457	అనకొండలు
-4.991457	అనగా
-4.815365	అనగానే
-4.447388	అనడం
-4.991457	అనడాన్ని
-4.991457	అనధికారికంగా
-4.991457	అననుకూల
-4.690426	అనపర్తిలో
-4.991457	అనరించారు
-4.690426	అనర్హత
-4.815365	అనర్హులు
-4.991457	అనర్హులుగా
-4.815365	అనలేదు
-4.991457	అనవద్దని
-4.815365	అనవసర
-4.991457	అనవసరమని
-4.815365	అనవసరమైన
-4.991457	అనసరించాలనే
-4.991457	అనసూయమ్మ
-4.991457	అనసూయమ్మకు
-4.991457	అనాగరికంగా
-4.991457	అనాదిగా
-4.991457	అనాధాలే
-4.991457	అనాయసంగా
-4.815365	అనారోగ్య
-4.690426	అనారోగ్యంతో
-4.991457	అనారోగ్యానికి
-4.815365	అనాలోచిత
-4.991457	అనావృష్టి
-4.991457	అనాస
-2.792799	అని
-4.991457	అనిటి
-4.447388	అనిత
-4.815365	అనితకు
-4.991457	అనితపై
-4.991457	అనిపించాలని
-4.991457	అనిపించి
-4.690426	అనిపించింది
-4.991457	అనిపించుకుంటుందా
-4.991457	అనిపించుకుంటున్నాడు
-4.991457	అనిపించుకుటున్నాయి
-4.815365	అనిపించుకుని
-4.991457	అనిపించుకున్నారు
-4.815365	అనిపించుకోదన్నారు
-4.815365	అనిపిస్తుంది
-4.991457	అనిపిస్తున్నారు
-4.815365	అనిపిస్తోందని
-4.991457	అనిపిస్తోంది
-4.690426	అనిల్
-4.991457	అనివార్య
-4.815365	అనివార్యంగా
-4.991457	అనివార్యతలో
-4.991457	అనిశా
-4.991457	అనిశ్చితి
-4.991457	అనీ
-4.991457	అనీషా
-4.815365	అను
-4.690426	అనుకరణ
-4.991457	అనుకరించిన
-4.991457	అనుకుంటారని
-4.991457	అనుకుంటుందిని
-4.991457	అనుకుంటున్నటు
-4.593516	అనుకుంటున్నట్లు
-4.991457	అనుకుంటున్నట్లున్నారు
-4.991457	అనుకుంటున్నాను
-4.815365	అనుకుంటున్నామని
-4.251094	అనుకుంటున్నారు
-4.991457	అనుకుంటున్నారేమోనని
-4.690426	అనుకుంటే
-4.991457	అనుకుంటోంది
-4.991457	అనుకుంది
-4.690426	అనుకుని
-4.213305	అనుకున్న
-4.690426	అనుకున్నంత
-4.815365	అనుకున్నట్లు
-4.991457	అనుకున్నట్లుగా
-4.991457	అనుకున్నవి
-4.991457	అనుకున్నాం
-4.991457	అనుకున్నాడు
-4.815365	అనుకున్నానని
-4.991457	అనుకున్నామని
-4.991457	అనుకున్నారనే
-4.690426	అనుకున్నారు
-4.991457	అనుకున్నారో
-4.991457	అనుకూంగా
-3.761008	అనుకూలంగా
-4.991457	అనుకూలంగానే
-4.815365	అనుకూలత
-4.815365	అనుకూలమైన
-4.991457	అనుకూలిస్తే
-4.991457	అనుకృతి
-4.815365	అనుకొని
-4.690426	అనుకోకుండా
-4.690426	అనుకోవచ్చు
-4.991457	అనుకోవటంలో
-4.815365	అనుకోవడం
-4.991457	అనుకోవడమే
-4.991457	అనుకోవడానికి
-3.930758	అనుగుణంగా
-4.991457	అనుగుణంగానే
-4.991457	అనుగ్రహించాలని
-4.991457	అనుచరగణంతో
-4.991457	అనుచరుడిగా
-4.593516	అనుచరుడు
-4.815365	అనుచరుల
-4.991457	అనుచరులకు
-4.593516	అనుచరులతో
-4.338244	అనుచరులు
-4.690426	అనుచరుల్లో
-4.690426	అనుచిత
-4.991457	అనుచితంగా
-4.991457	అనుచితమైన
-4.991457	అనుచురులు
-4.815365	అనుత్పాదక
-4.991457	అనునిత్యం
-4.991457	అనుపమ
-4.389397	అనుబంధ
-4.815365	అనుబంధం
-4.690426	అనుబంధంగా
-4.991457	అనుబంధమైన
-4.815365	అనుబంధాలు
-3.912275	అనుభవం
-4.991457	అనుభవదారులను
-4.815365	అనుభవాల
-4.447388	అనుభవాలను
-4.991457	అనుభవాలన్నిటిని
-4.991457	అనుభవాలు
-4.991457	అనుభవించాను
-4.991457	అనుభవించాలా
-4.991457	అనుభవించాల్సి
-4.991457	అనుభవించింది
-4.991457	అనుభవించిన
-4.991457	అనుభవిస్తున్నట్లు
-4.991457	అనుభవిస్తున్నాడన్నారు
-4.991457	అనుభవిస్తున్నారు
-4.991457	అనుభవిస్తూ
-4.991457	అనుభూతి
-4.991457	అనుభూతిని
-4.991457	అనుమ
-4.037214	అనుమతి
-4.991457	అనుమతించబోమని
-4.815365	అనుమతించరని
-4.991457	అనుమతించలేదు
-4.815365	అనుమతించారు
-4.991457	అనుమతించి
-4.991457	అనుమతించింది
-4.815365	అనుమతించేది
-4.991457	అనుమతిచ్చారు
-4.991457	అనుమతితో
-4.991457	అనుమతిని
-4.991457	అనుమతివ్వడంతో
-4.991457	అనుమతివ్వడంలో
-4.815365	అనుమతిస్తున్న
-4.991457	అనుమతిస్తున్నారని
-4.815365	అనుమతిస్తూ
-4.991457	అనుమతుంటేనే
-4.991457	అనుమతుల
-4.991457	అనుమతులకు
-4.991457	అనుమతులను
-4.292487	అనుమతులు
-4.991457	అనుమతుల్లో
-3.950064	అనుమానం
-4.514335	అనుమానంగానే
-4.116395	అనుమానంతో
-4.815365	అనుమానమే
-4.815365	అనుమానమేనని
-4.991457	అనుమానస్పద
-4.991457	అనుమానాన్ని
-4.815365	అనుమానాలకు
-4.690426	అనుమానాలను
-3.912275	అనుమానాలు
-4.991457	అనుమానాలున్నాయని
-4.991457	అనుమానాలున్నాయి
-4.991457	అనుమానాలేనని
-4.447388	అనుమానాస్పద
-4.593516	అనుమానాస్పదంగా
-4.991457	అనుమానాస్పదమృతి
-4.991457	అనుమానాస్పదలో
-4.991457	అనుమానించదగ్గ
-4.991457	అనుమానించారు
-4.815365	అనుమానించింది
-4.991457	అనుమానిచారు
-4.815365	అనుమానిత
-4.815365	అనుమానితులను
-4.991457	అనుమానిస్తుందో
-4.991457	అనుమానిస్తున్న
-4.991457	అనుమానిస్తున్నట్లు
-4.013733	అనుమానిస్తున్నారు
-4.991457	అనుయాయి
-4.815365	అనురాగానికి
-4.593516	అనురాగ్
-4.991457	అనువాదాలను
-4.690426	అనువుగా
-4.593516	అనువైన
-4.991457	అనువైనదని
-4.991457	అనుశ్క
-4.991457	అనుష
-4.338244	అనుష్క
-4.815365	అనుష్కల
-4.815365	అనుసంధాన
-4.213305	అనుసంధానం
-4.815365	అనుసంధానంగా
-4.991457	అనుసంధానంపై
-4.991457	అనుసంధానాన్ని
-4.991457	అనుసంధానిస్తారు
-4.991457	అనుసరి
-4.991457	అనుసరించటం
-4.991457	అనుసరించామని
-4.690426	అనుసరించాల్సిన
-4.593516	అనుసరించి
-4.815365	అనుసరించిన
-4.991457	అనుసరించినా
-4.991457	అనుసరించే
-4.991457	అనుసరిస్తామని
-4.991457	అనుసరిస్తారు
-4.991457	అనుసరిస్తుందని
-4.389397	అనుసరిస్తున్న
-4.991457	అనుసరిస్తున్నట్లు
-4.690426	అనుసరిస్తున్నారు
-4.690426	అనూష
-4.991457	అనూషతో
-4.815365	అనూషను
-4.514335	అనూహ్యంగా
-3.209701	అనే
-4.815365	అనేందుకు
-3.472942	అనేక
-4.815365	అనేకమంది
-4.991457	అనేకమందితో
-4.991457	అనేకవిధాలు
-4.991457	అనేకాంశాల్లో
-3.659018	అనేది
-4.690426	అనేదే
-4.991457	అనేశారు
-4.991457	అనోఫ్తాల్మియా
-3.845328	అన్న
-4.338244	అన్నం
-4.815365	అన్నగా
-4.991457	అన్నట్టు
-4.514335	అన్నట్లు
-4.447388	అన్నట్లుగా
-4.991457	అన్నతమ్ముల్లా
-4.991457	అన్నదమ్ములిద్దరూ
-4.815365	అన్నదాత
-4.815365	అన్నదాతలు
-4.991457	అన్నదానాలు
-4.389397	అన్నది
-4.991457	అన్నదీ
-4.991457	అన్నన్
-4.991457	అన్నపానీయాలు
-4.991457	అన్నపూర్ణ
-4.991457	అన్నపూర్ణగా
-4.991457	అన్నపూర్ణదేవిగా
-4.991457	అన్నపూర్ణాదేవిగా
-4.991457	అన్నప్రాసన
-4.991457	అన్నమయ్య
-4.991457	అన్నమయ్యకు
-4.690426	అన్నయ్య
-4.991457	అన్నయ్యను
-4.991457	అన్నయ్యనే
-4.991457	అన్నరు
-4.991457	అన్నవరం
-4.991457	అన్నవరంలో
-4.815365	అన్నా
-4.991457	అన్నాచెల్లెళ్లుగా
-4.991457	అన్నాడంటే
-4.991457	అన్నాడని
-3.861123	అన్నాడు
-4.991457	అన్నాయ
-4.991457	అన్నారని
-2.526818	అన్నారు
-4.991457	అన్నాహజారే
-2.97234	అన్ని
-4.815365	అన్నింటా
-4.815365	అన్నింటి
-4.991457	అన్నింటికంటే
-4.815365	అన్నింటికి
-4.690426	అన్నింటిని
-4.593516	అన్నింటినీ
-4.991457	అన్నింటి్లో
-4.991457	అన్నింట్లో
-4.991457	అన్నిచేపట్టినట్టు
-4.690426	అన్నిటికంటే
-4.991457	అన్నిటికీ
-4.991457	అన్నిరకాల
-4.991457	అన్నివర్గాల్లో
-4.690426	అన్నివిధాలా
-4.062037	అన్నీ
-4.991457	అన్నుకున్నారు
-4.991457	అన్నెంపున్నెం
-4.991457	అన్యం
-4.991457	అన్యా
-4.991457	అన్యాక్రాంతమై
-4.991457	అన్యాక్రాంతమైందన్నారు
-4.991457	అన్యాపదేశం
-4.991457	అన్యాపదేశంగా
-4.991457	అన్యాయ
-3.877513	అన్యాయం
-4.815365	అన్యాయంగా
-4.514335	అన్యాయంపై
-4.514335	అన్యాయమని
-4.991457	అన్యాయమనే
-4.815365	అన్యాయమన్నారు
-4.991457	అన్యాయము
-4.991457	అన్యాయమేకాగా
-4.690426	అన్యాయాన్ని
-4.991457	అన్యాయాలను
-4.991457	అన్యాయాలూ
-4.815365	అన్యోన్యంగా
-4.991457	అన్లా
-4.690426	అన్వేషణ
-4.815365	అన్వేషణకు
-4.991457	అన్వేషించేందుకు
-4.991457	అన్వేషిస్తుంది
-4.991457	అన్వేషిస్తున్నారు
-4.991457	అపత్కర
-4.991457	అపరహణకు
-4.991457	అపరాధిగా
-4.991457	అపరాల
-4.991457	అపరాలు
-4.991457	అపరిచితుడు
-4.991457	అపరిమిత
-4.991457	అపరిశుభ్ర
-4.991457	అపరిష్కృతంగా
-4.991457	అపర్ణను
-4.991457	అపర్ణయాదవ్
-4.991457	అపవాదాలు
-4.991457	అపవాదు
-4.991457	అపవాదులు
-4.991457	అపవిత్రం
-4.991457	అపశకునాలు
-4.991457	అపస్మార
-4.447388	అపస్మారక
-4.991457	అపస్మారకస్థితిలో
-4.991457	అపహరణ
-4.815365	అపహరణకు
-4.690426	అపహరించారు
-4.991457	అపహరించిన
-4.991457	అపహరించుకుపోయారు
-4.815365	అపహాస్యం
-4.991457	అపాయింట్
-4.815365	అపార
-4.991457	అపారమైన
-4.991457	అపార్టుమెంట్
-4.991457	అపార్టుమెంట్ల
-4.991457	అపీల్
-4.991457	అపీళ్ళను
-4.991457	అపుడు
-4.991457	అపుడే
-4.593516	అపోలో
-4.991457	అపోహలకు
-4.991457	అపోహలు
-4.514335	అప్
-4.690426	అప్పగించడం
-4.991457	అప్పగించలేదు
-4.991457	అప్పగించారని
-4.251094	అప్పగించారు
-4.991457	అప్పగించాలంటూ
-4.815365	అప్పగించాలని
-4.690426	అప్పగించింది
-4.991457	అప్పగించిన
-4.991457	అప్పగించే
-4.991457	అప్పగించేందుకు
-4.991457	అప్పగించేశానన్నారు
-4.815365	అప్పగింతపై
-4.991457	అప్పగిస్తా
-4.991457	అప్పగిస్తారంటూ
-4.991457	అప్పజెప్పారు
-3.877513	అప్పటి
-4.991457	అప్పటికప్పుడు
-4.991457	అప్పటికి
-4.991457	అప్పటికికూడా
-4.815365	అప్పటికీ
-3.845328	అప్పటికే
-4.991457	అప్పటిలోగా
-4.815365	అప్పటివరకూ
-4.013733	అప్పట్లో
-4.991457	అప్పట్లోగా
-4.991457	అప్పడికి
-4.991457	అప్పడు
-4.690426	అప్పనంగా
-4.815365	అప్పన్నను
-4.991457	అప్పన్నస్వామి
-4.991457	అప్పల
-4.991457	అప్పలనర్సయ్య
-4.991457	అప్పలమ్మలు
-4.991457	అప్పలరాజుసహా
-4.991457	అప్పాయింమెంట్
-4.991457	అప్పారావు
-4.991457	అప్పారావుల
-4.991457	అప్పారావులను
-4.991457	అప్పారెడ్డి
-4.251094	అప్పు
-4.991457	అప్పుకు
-4.991457	అప్పుకోసం
-4.991457	అప్పుగా
-4.991457	అప్పుచేసి
-4.690426	అప్పుడప్పుడు
-4.593516	అప్పుడు
-4.389397	అప్పుడే
-4.991457	అప్పుతో
-3.930758	అప్పుల
-4.991457	అప్పులకు
-4.991457	అప్పులకే
-4.991457	అప్పులవ్వడంతో
-4.991457	అప్పులిచ్చినవారి
-4.213305	అప్పులు
-4.991457	అప్పులో
-4.991457	అప్పుల్లో
-4.815365	అప్పో
-4.991457	అప్రకటిత
-4.991457	అప్రజాస్వామికం
-4.991457	అప్రజాస్వామ్యక
-4.292487	అప్రమత్తం
-4.593516	అప్రమత్తంగా
-4.815365	అప్రమత్తమయింది
-4.991457	అప్రమత్తమవుతుందన్నారు
-4.991457	అప్రమత్తమై
-4.815365	అప్రమత్తమైంది
-4.991457	అప్రమత్తమైన
-4.991457	అప్లికేషన్
-4.991457	అఫిడవిట్
-4.991457	అఫీషియల్
-4.991457	అఫ్ఘాన్
-4.690426	అఫ్జల్
-4.991457	అఫ్రిది
-4.690426	అఫ్రిదీ
-4.991457	అబద్దం
-4.338244	అబద్దాలు
-4.991457	అబద్ధం
-4.213305	అబద్ధాలు
-4.991457	అబార్కీ
-4.991457	అబిదీన్
-4.815365	అబూదబీలో
-4.991457	అబే
-4.991457	అబేతో
-4.991457	అబేబితో
-4.991457	అబోట్
-4.178543	అబ్దుల్
-4.991457	అబ్దుల్లా
-4.690426	అబ్దెస్లామ్
-4.991457	అబ్బయ్యకు
-4.991457	అబ్బరా
-4.991457	అబ్బరాజుపాలెం
-4.690426	అబ్బాయి
-4.991457	అబ్బాయితో
-4.991457	అబ్బాయిని
-4.991457	అబ్బాయిలు
-4.991457	అబ్బురపర్చేలా
-4.991457	అబ్యార్తుల
-4.991457	అబ్యుత
-4.991457	అబ్రహిం
-4.991457	అభద్రతాభావం
-4.991457	అభాండాలు
-4.690426	అభి
-4.991457	అభినందన
-4.690426	అభినందనలు
-4.815365	అభినందించాడు
-4.593516	అభినందించారు
-4.991457	అభినందిస్తున్నానని
-4.991457	అభినందిస్తున్నారని
-4.991457	అభినందిస్తున్నారు
-4.991457	అభినందిస్తూ
-4.991457	అభిప్రయపడ్డారు
-4.991457	అభిప్రా
-4.292487	అభిప్రాయ
-3.773973	అభిప్రాయం
-4.991457	అభిప్రాయంగా
-4.690426	అభిప్రాయంతో
-4.690426	అభిప్రాయంలో
-4.815365	అభిప్రాయపడింది
-4.991457	అభిప్రాయపడినట్లు
-4.991457	అభిప్రాయపడుతున్నారని
-4.213305	అభిప్రాయపడుతున్నారు
-4.991457	అభిప్రాయపడుతూ
-4.991457	అభిప్రాయపడే
-3.830088	అభిప్రాయపడ్డారు
-4.815365	అభిప్రాయమని
-4.991457	అభిప్రాయసేకరణలో
-4.447388	అభిప్రాయానికి
-4.213305	అభిప్రాయాన్ని
-4.991457	అభిప్రాయాపడ్డారు
-4.991457	అభిప్రాయాల
-4.815365	అభిప్రాయాలకు
-4.251094	అభిప్రాయాలను
-4.690426	అభిప్రాయాలు
-4.991457	అభిప్రాయాలూ
-4.991457	అభిమత
-4.991457	అభిమతం
-4.991457	అభిమతమన్నారు
-4.991457	అభిమన్యుడికి
-4.991457	అభిమాన
-4.690426	అభిమానం
-4.991457	అభిమానమని
-4.690426	అభిమానాన్ని
-4.593516	అభిమాని
-4.991457	అభిమానికి
-4.690426	అభిమానిని
-4.178543	అభిమానుల
-4.690426	అభిమానులను
-3.801125	అభిమానులు
-4.815365	అభిముఖంగా
-4.815365	అభియోగం
-4.991457	అభియోగంపై
-4.815365	అభియోగాలు
-4.991457	అభివర్ణించటం
-4.991457	అభివర్ణించడం
-4.815365	అభివర్ణించారు
-4.991457	అభివృద్ద
-4.447388	అభివృద్ది
-4.815365	అభివృద్దికి
-4.991457	అభివృద్దిని
-4.991457	అభివృద్దు
-3.1193	అభివృద్ధి
-3.801125	అభివృద్ధికి
-4.991457	అభివృద్ధికే
-4.991457	అభివృద్ధిచెందే
-4.991457	అభివృద్ధితో
-4.213305	అభివృద్ధిని
-4.991457	అభివృద్ధిపరిచేందుకుగాను
-4.593516	అభివృద్ధిపై
-4.292487	అభివృద్ధిలో
-4.991457	అభివృద్ధిలోకి
-4.991457	అభివృద్ధిలోనూ
-4.991457	అభిషేకాలు
-4.991457	అభూత
-4.991457	అభ్యంతర
-4.389397	అభ్యంతరం
-4.991457	అభ్యంతరంగా
-4.991457	అభ్యంతరంలేదూ
-4.991457	అభ్యంతరాలను
-4.991457	అభ్యంతరాలు
-4.292487	అభ్యర్థి
-4.815365	అభ్యర్థికి
-4.292487	అభ్యర్థిగా
-4.991457	అభ్యర్థిత్వాన్ని
-4.815365	అభ్యర్థిని
-4.514335	అభ్యర్థుల
-4.991457	అభ్యర్థులకు
-4.815365	అభ్యర్థులను
-4.514335	అభ్యర్థులు
-4.991457	అభ్యర్దుల
-4.991457	అభ్యర్ధి
-4.593516	అభ్యర్ధిగా
-4.991457	అభ్యర్ధుల
-4.991457	అభ్యర్ధులకు
-4.991457	అభ్యర్ధులపై
-4.991457	అభ్యసించడంలో
-4.991457	అభ్యసించడానికి
-4.991457	అభ్యసించాలని
-4.991457	అభ్యసిస్తున్న
-4.593516	అభ్యుదయ
-4.991457	అభ్యుదయవాదు
-4.991457	అభ్యున్నతికి
-4.991457	అమర
-4.815365	అమరనాథరెడ్డి
-4.991457	అమరలింగయ్యకు
-4.514335	అమరవీరుల
-4.815365	అమరవీరులకు
-4.815365	అమరవీరులను
-4.991457	అమరవీరులు
-4.991457	అమరస్థూపం
-4.991457	అమరా
-3.560093	అమరావతి
-4.213305	అమరావతికి
-4.447388	అమరావతిని
-4.991457	అమరావతిల
-4.146358	అమరావతిలో
-4.991457	అమరావతిలోని
-4.815365	అమరావతిలోనే
-4.991457	అమరికాలోకి
-4.690426	అమరుడిని
-4.815365	అమర్
-4.991457	అమర్చితే
-4.690426	అమర్నాథ్
-4.991457	అమల
-4.991457	అమలకు
-4.991457	అమలయ్యే
-4.815365	అమలవుతున్న
-4.690426	అమలాపురం
-4.690426	అమలాపురంలో
-4.991457	అమలాపురానికి
-3.168635	అమలు
-4.991457	అమలుకాదంటున్నారు
-4.593516	అమలుకు
-4.991457	అమలుచేయడం
-4.815365	అమలుచేసిన
-4.991457	అమలుచేస్తామని
-4.991457	అమలుచేస్తుండటం
-4.991457	అమలుపరచకపోతే
-4.991457	అమలుపరుస్తామని
-4.815365	అమలుపై
-4.389397	అమలులో
-4.815365	అమలులోకి
-4.991457	అమలుల్లోకి
-4.690426	అమల్లో
-4.690426	అమల్లోకి
-4.991457	అమాంతం
-4.991457	అమాయకంగా
-4.815365	అమాయకురాలినని
-4.991457	అమాయకుల
-4.815365	అమాయకులు
-4.991457	అమావాస్య
-4.593516	అమితంగా
-4.991457	అమితషా
-4.178543	అమిత్
-4.991457	అమిర్
-4.991457	అమీబా
-4.690426	అమీర్
-4.991457	అమీషా
-4.991457	అముద్రిత
-4.991457	అమూర్త
-4.991457	అమృతహస్తం
-4.991457	అమెకాలో
-4.690426	అమెజాన్
-4.991457	అమెరికన్లు
-3.669237	అమెరికా
-4.514335	అమెరికాకు
-4.815365	అమెరికాను
-4.146358	అమెరికాలో
-4.514335	అమెరికాలోని
-4.991457	అమెరికాలోనే
-4.690426	అమ్మ
-4.991457	అమ్మంగి
-4.815365	అమ్మకం
-4.991457	అమ్మకాల
-4.991457	అమ్మకాలతో
-4.991457	అమ్మకాలను
-4.292487	అమ్మకాలు
-4.991457	అమ్మడం
-4.991457	అమ్మడమే
-4.991457	అమ్మను
-4.991457	అమ్మబోతే
-4.991457	అమ్మమ్మ
-4.991457	అమ్మయి
-4.338244	అమ్మవారి
-4.447388	అమ్మవారికి
-4.389397	అమ్మవారిని
-4.991457	అమ్మవార్లను
-4.991457	అమ్మా
-4.991457	అమ్మాజీ
-4.116395	అమ్మాయి
-4.815365	అమ్మాయికి
-4.690426	అమ్మాయిని
-4.815365	అమ్మాయిల
-4.991457	అమ్మాయిలకు
-4.991457	అమ్మాయిలతో
-4.815365	అమ్మాయిలను
-4.514335	అమ్మాయిలు
-4.991457	అమ్మాయే
-4.991457	అమ్మిన
-4.991457	అమ్ముకుంటున్నారని
-4.991457	అమ్ముకుని
-4.991457	అమ్ముకునేవారు
-4.991457	అమ్ముకున్నా
-4.690426	అమ్ముకున్నారు
-4.815365	అమ్ముకోలేక
-4.991457	అమ్ముకోవడం
-4.815365	అమ్ముకోవద్దని
-4.690426	అమ్ముకోవాల్సి
-4.991457	అమ్ముడుపోయి
-4.815365	అమ్ముడుపోలేదని
-4.991457	అమ్ముడోపోవడానికి
-4.991457	అమ్ముతుంటారు
-4.991457	అమ్ములు
-4.991457	అమ్మేదీ
-4.991457	అమ్మేసినట్లు
-4.991457	అమ్మేస్తారు
-4.815365	అమ్మోనియా
-4.338244	అయన
-4.991457	అయనకి
-4.991457	అయన్నపాత్రుడు
-4.389397	అయి
-4.815365	అయిందంటూ
-4.251094	అయింది
-4.991457	అయిటే
-4.991457	అయితవరం
-2.625033	అయితే
-4.447388	అయిదు
-4.690426	అయిదుగురికి
-4.991457	అయిదుగురు
-4.991457	అయిదున్న
-4.991457	అయిదువేల
-4.991457	అయిదేళ్ల
-4.815365	అయిదేళ్లు
-4.991457	అయిదేళ్ళ
-4.991457	అయిదేళ్ళలో
-4.991457	అయిదో
-3.773973	అయిన
-4.991457	అయినందున
-4.690426	అయినట్లు
-4.991457	అయినది
-4.991457	అయినప్పటికి
-4.690426	అయినప్పటికీ
-4.815365	అయినవిల్లి
-3.544298	అయినా
-4.991457	అయిని
-4.815365	అయిపోతుంది
-4.991457	అయిపోతున్నట్లు
-4.991457	అయిపోయాయి
-4.690426	అయిపోయింది
-4.991457	అయిపోయిన
-4.991457	అయిపోయినట్లే
-4.991457	అయిపోయేగానే
-4.991457	అయిపోవడంతో
-4.991457	అయియన్
-4.593516	అయేషా
-4.815365	అయోగ్
-4.991457	అయోధ్యను
-4.991457	అయోధ్యలోని
-4.815365	అయోమయం
-4.991457	అయోమయానికి
-4.690426	అయ్యన్న
-4.991457	అయ్యన్నకు
-4.815365	అయ్యన్నపాత్రుడు
-4.991457	అయ్యన్నలకు
-4.991457	అయ్యన్ని
-4.991457	అయ్యప్పపాత్రుడు
-4.815365	అయ్యాక
-4.991457	అయ్యాడు
-4.815365	అయ్యాన
-4.991457	అయ్యానో
-4.447388	అయ్యాయి
-4.690426	అయ్యారని
-4.991457	అయ్యారనే
-4.991457	అయ్యారన్నారు
-3.912275	అయ్యారు
-4.991457	అయ్యి
-4.991457	అయ్యిందని
-4.991457	అయ్యిందన్నారు
-4.593516	అయ్యింది
-4.116395	అయ్యే
-4.991457	అయ్యేంత
-4.815365	అయ్యేందుకు
-4.991457	అయ్యేదని
-4.593516	అయ్యేలా
-4.991457	అరంగల
-4.991457	అరకిలోమీటరు
-4.991457	అరకు
-4.991457	అరకులోయ
-4.815365	అరకువేలీ
-4.593516	అరకొర
-4.991457	అరకొరక
-4.815365	అరక్కొనం
-4.991457	అరగంట
-4.991457	అరగంటకు
-4.991457	అరగన్వాడీలను
-4.815365	అరచనా
-4.690426	అరచేతిలో
-4.690426	అరటి
-4.815365	అరటున్నారు
-4.991457	అరడజను
-4.991457	అరడజనుకుపైగా
-4.991457	అరతేకాకుండా
-4.991457	అరదిరచాల్సిన
-4.991457	అరదిరచేరదుకు
-4.991457	అరదుకు
-4.991457	అరదుకే
-4.991457	అరదులో
-4.991457	అరద్ధమేమీ
-4.815365	అరబిందో
-4.991457	అరవిందరావు
-4.251094	అరవింద్
-4.991457	అరవై
-4.991457	అరశాల
-4.991457	అరశాలకు
-4.815365	అరశాలను
-4.593516	అరశాలపై
-4.690426	అరాచకం
-4.991457	అరాచకవాదాన్ని
-4.991457	అరాచకవాదులు
-4.991457	అరాచకవాదులుగా
-4.991457	అరాచకశక్తులను
-4.991457	అరాచకాలను
-4.991457	అరాచకాలు
-4.991457	అరాటపడుతునారు
-4.991457	అరికట్ట
-4.690426	అరికట్టడానికి
-4.991457	అరికట్టాలో
-4.815365	అరికట్టి
-4.815365	అరికట్టేందుకు
-4.991457	అరికెపూడి
-4.991457	అరికెర
-4.991457	అరికెల
-4.991457	అరిగిపోయేలా
-4.991457	అరుగుమీద
-4.991457	అరుగెక్కిన
-4.389397	అరుణ
-4.991457	అరుణకుమారిని
-4.088367	అరుణ్
-4.991457	అరుదు
-4.593516	అరుదైన
-4.991457	అరునించారు
-4.593516	అరుపులు
-4.815365	అరుస్తూ
-4.991457	అరెస్టవుతారని
-3.830088	అరెస్టు
-4.991457	అరెస్టుచేశారు
-4.991457	అరెస్టుపై
-4.991457	అరెస్టుమూడో
-4.991457	అరెస్టుల
-4.991457	అరెస్టులు
-4.389397	అరెస్ట్
-4.991457	అరేబియాలో
-4.991457	అరోన్
-4.991457	అర్చకుని
-4.991457	అర్చన
-4.815365	అర్చనా
-4.991457	అర్చించిన
-4.815365	అర్జునుడి
-4.593516	అర్జున్
-4.991457	అర్జెంటీనా
-4.991457	అర్తమవుతూనే
-4.991457	అర్థ
-3.701422	అర్థం
-4.991457	అర్థమయ్యే
-4.815365	అర్థమయ్యేలా
-4.991457	అర్థమవుతాయి
-4.815365	అర్థమవుతుందని
-4.991457	అర్థమవుతుందనేది
-4.991457	అర్థమవుతుంది
-4.815365	అర్థమవుతున్నది
-4.815365	అర్థమవుతోందని
-4.338244	అర్థమవుతోంది
-4.991457	అర్థమైందంటున్నారు
-4.447388	అర్థరాత్రి
-4.815365	అర్థవంతంగా
-4.991457	అర్థాలు
-4.991457	అర్ధ
-4.447388	అర్ధం
-4.991457	అర్ధంతరంగా
-4.991457	అర్ధగంటకు
-4.815365	అర్ధనగ్నంగా
-4.991457	అర్ధమైంది
-4.991457	అర్ధరహితమని
-3.970267	అర్ధరాత్రి
-4.593516	అర్ధాంతరంగా
-4.991457	అర్ధ్రరాత్రి
-4.991457	అర్పించడానికి
-4.062037	అర్పించారు
-4.815365	అర్పించిన
-4.815365	అర్బన్
-4.991457	అర్రులు
-4.213305	అర్హత
-4.991457	అర్హతలున్నాయని
-4.991457	అర్హులకు
-4.991457	అర్హులకే
-4.991457	అర్హులని
-4.991457	అర్హులను
-4.991457	అర్హులుగా
-4.514335	అర్హులైన
-4.991457	అలంకరించడంతో
-4.991457	అలంకరించారు
-4.815365	అలంకరించిన
-4.991457	అలంకరించే
-4.991457	అలంపూర్
-4.690426	అలజడిగా
-4.991457	అలజడులు
-4.991457	అలనాటి
-4.991457	అలమటిస్తున్న
-4.991457	అలముకున్నారు
-4.991457	అలరించడంతో
-4.991457	అలరించాడు
-4.991457	అలరించాయి
-4.815365	అలరించారు
-4.991457	అలరించింది
-4.815365	అలరించిన
-4.690426	అలరించేందుకు
-4.991457	అలలా
-4.991457	అలలు
-4.389397	అలవాటు
-4.991457	అలవాటే
-4.815365	అలవోకగా
-3.629729	అలా
-4.991457	అలాంటపుడు
-4.690426	అలాంటప్పుడు
-3.991457	అలాంటి
-4.690426	అలాంటిది
-4.991457	అలాంటిదేం
-4.815365	అలాంటిదేమీ
-4.991457	అలాంటివారు
-4.991457	అలాంటివి
-4.815365	అలాకాకుండా
-4.991457	అలాగ
-3.486306	అలాగే
-4.292487	అలియాస్
-4.292487	అలీ
-4.815365	అలీకి
-4.991457	అలీఖాన్
-4.991457	అలీపై
-4.991457	అలీబేగ్
-4.991457	అలీముద్దీన్
-4.815365	అలుపెరగని
-4.991457	అలుముకుంది
-4.389397	అలుముకున్నాయి
-4.991457	అలుముకొన్నాయి
-4.991457	అలుసై
-4.991457	అలెగ్జాండర్
-4.991457	అలెగ్జాండ్రియా
-4.991457	అలెగ్జాండ్రీ
-4.991457	అలెప్పో
-4.991457	అలెస్టర్
-4.815365	అలోక్
-4.991457	అల్టిమేటం
-4.991457	అల్పపీడణ
-4.389397	అల్పపీడన
-4.593516	అల్పపీడనం
-4.991457	అల్పపీడనంగా
-4.815365	అల్పపీడనద్రోణి
-4.815365	అల్పపీడనాలు
-4.991457	అల్పపీడనాలూ
-4.991457	అల్పహారం
-4.593516	అల్పాహారం
-4.815365	అల్లం
-4.991457	అల్లంతోట
-4.815365	అల్లకల్లోలం
-4.690426	అల్లరి
-4.991457	అల్లర్లు
-4.991457	అల్లాడిపోతున్నారన్నారు
-4.991457	అల్లాడిపోతున్నారు
-4.690426	అల్లాడుతున్న
-4.991457	అల్లిమేటం
-4.338244	అల్లు
-4.593516	అల్లుడికి
-4.593516	అల్లుడు
-4.991457	అల్లూరు
-4.991457	అల్లోల
-4.991457	అవ
-4.991457	అవక
-4.991457	అవకతవకలను
-2.962073	అవకాశం
-4.991457	అవకాశంఏడాది
-4.991457	అవకాశంలేకుండా
-4.991457	అవకాశమివ్వాల్సిన
-4.116395	అవకాశముందని
-4.991457	అవకాశముందనే
-4.991457	అవకాశముందన్నారు
-4.338244	అవకాశముంది
-4.514335	అవకాశమే
-4.447388	అవకాశాన్ని
-4.514335	అవకాశాలను
-4.815365	అవకాశాలపై
-3.536612	అవకాశాలు
-4.991457	అవకాశాలుంటాయి
-4.991457	అవకాశాలుండేవి
-4.690426	అవకాశాలున్నట్లు
-4.292487	అవకాశాలున్నాయని
-4.991457	అవకాశాలున్నాయనే
-4.146358	అవకాశాలున్నాయి
-4.991457	అవకాశాలున్నాయో
-4.815365	అవకాశాలూ
-4.514335	అవకాశాలే
-4.991457	అవకాశాలేవు
-4.991457	అవకాశాల్నుట్టు
-3.761008	అవగాహన
-4.815365	అవగాహనా
-4.991457	అవగాహహన
-4.991457	అవటంతో
-4.991457	అవడం
-4.991457	అవతరణ
-4.991457	అవతరించిన
-4.991457	అవతారం
-4.991457	అవతారంలో
-4.991457	అవధులు
-4.991457	అవనాశ్
-4.815365	అవనిజ
-4.991457	అవనే
-4.447388	అవన్నీ
-4.991457	అవమానపరిచారన్నారు
-4.991457	అవమానపరిచిందని
-4.991457	అవమానపరుస్తూ
-4.514335	అవమానాలు
-4.991457	అవమానించటమే
-4.991457	అవమానించడమేనని
-4.991457	అవమానించడమేనన్నారు
-4.815365	అవమానించారని
-4.991457	అవమానించే
-4.991457	అవమానిస్తున్నారు
-4.991457	అవమానిస్తూ
-4.991457	అవయవదాననికి
-4.991457	అవయవలోపాలను
-4.690426	అవయవాలను
-4.991457	అవరోధం
-4.593516	అవలంబిస్తున్న
-4.991457	అవలంబిస్తున్నాయన్నారు
-4.991457	అవలంబిస్తోందని
-4.991457	అవలంబిస్తోంది
-4.991457	అవలంభించాలి
-4.991457	అవలంభిస్తున్నాయన్నారు
-4.991457	అవలక్షణాల
-4.991457	అవలేదు
-4.690426	అవసం
-4.815365	అవసమరమని
-3.324003	అవసరం
-4.991457	అవసరంగ
-4.991457	అవసరంతోపాటు
-4.991457	అవసరంలేదని
-4.991457	అవసరమంటూ
-4.991457	అవసరమందన్నారు
-4.447388	అవసరమని
-4.815365	అవసరమన్నారు
-4.991457	అవసరమయ్యే
-4.991457	అవసరమవుతారు
-4.514335	అవసరముందని
-4.991457	అవసరముందన్నారు
-4.815365	అవసరముంది
-3.970267	అవసరమైతే
-3.736184	అవసరమైన
-4.991457	అవసరమైనపుడు
-4.991457	అవసరాణాలు
-4.815365	అవసరానికి
-4.991457	అవసరాన్ని
-4.447388	అవసరాల
-4.815365	అవసరాలకు
-4.447388	అవసరాలను
-4.593516	అవసరాలు
-4.991457	అవసరాలే
-4.389397	అవస్థలు
-4.991457	అవస్థాలుకు
-4.593516	అవాంఛనీయ
-4.815365	అవాంతరాలు
-4.991457	అవాకులు
-4.991457	అవాక్కయ్యారు
-4.991457	అవాక్కవుతున్నారు
-4.690426	అవార్డు
-4.815365	అవార్డుకు
-4.991457	అవార్డుని
-4.991457	అవార్డును
-4.690426	అవాస
-4.815365	అవాస్తవమని
-4.991457	అవాస్తవాలు
-4.991457	అవాస్తవాలేనని
-4.062037	అవి
-4.991457	అవినాష్
-4.991457	అవినీతా
-3.950064	అవినీతి
-4.593516	అవినీతికి
-4.251094	అవినీతిని
-4.991457	అవినీతిపరుల
-4.991457	అవినీతిపై
-4.991457	అవినీతిమయమైందని
-4.991457	అవినీతిలో
-4.991457	అవివేకం
-4.991457	అవిశ్వసనీయతకు
-4.088367	అవిశ్వాస
-4.815365	అవిశ్వాసం
-4.991457	అవీశాఖ
-4.593516	అవుటయ్యాడు
-4.991457	అవుటయ్యే
-4.991457	అవుటైనా
-4.815365	అవుట్
-4.991457	అవుట్లకు
-4.991457	అవుట్లో
-4.991457	అవుతానని
-4.991457	అవుతాన్నాయంటే
-4.690426	అవుతాయంటే
-4.514335	అవుతాయని
-4.991457	అవుతాయనే
-4.991457	అవుతాయన్నారు
-4.690426	అవుతారని
-4.991457	అవుతారనే
-4.991457	అవుతారా
-4.991457	అవుతారు
-4.991457	అవుతు
-4.593516	అవుతుందని
-4.690426	అవుతుందన్నారు
-4.338244	అవుతుంది
-4.991457	అవుతునాయి
-4.991457	అవుతున్న
-4.991457	అవుతున్నట్టు
-4.991457	అవుతున్నదని
-4.991457	అవుతున్నా
-4.815365	అవుతున్నాడు
-4.991457	అవుతున్నాయని
-4.593516	అవుతున్నాయి
-4.991457	అవుతున్నారని
-4.815365	అవుతున్నారు
-4.991457	అవుతూ
-4.991457	అవుతూనే
-4.991457	అవుతోందని
-4.389397	అవుతోంది
-4.815365	అవుననే
-4.991457	అవునూ
-4.991457	అవుల్
-4.815365	అవే
-4.991457	అవేమి
-4.991457	అవొచ్చు
-4.991457	అశాస్త్త్రీయంగా
-4.815365	అశాస్త్రీయంగా
-4.991457	అశువులు
-4.991457	అశోకగజపతిరాజు
-4.690426	అశోక్
-4.991457	అశ్వారావుపేట
-4.991457	అశ్వాలపై
-4.815365	అశ్విన్
-4.991457	అసంకల్పితంగా
-4.991457	అసంఘటిత
-3.773973	అసంతృప్తి
-4.690426	అసంతృప్తికి
-4.514335	అసంతృప్తిగా
-4.292487	అసంతృప్తితో
-4.389397	అసంతృప్తిని
-4.991457	అసంతృప్తిల్లాంటివేవీ
-4.991457	అసంతృప్తుల
-4.991457	అసంతృప్తులను
-4.815365	అసక్తికరంగా
-4.991457	అసత్య
-4.991457	అసత్యపు
-4.690426	అసత్యాలు
-4.991457	అసదుద్దీన్
-4.991457	అసద్
-4.991457	అసభలోకి
-4.991457	అసభ్యం
-4.593516	అసభ్యంగా
-4.991457	అసభ్యకర
-4.991457	అసభ్యకరంగా
-4.991457	అసమర్థతను
-4.690426	అసమానతలు
-4.815365	అసమ్మతి
-3.611245	అసలు
-4.815365	అసలుకే
-4.991457	అసలే
-4.991457	అసలైన
-4.991457	అసలైనదని
-4.991457	అసహజ
-4.815365	అసహన
-4.178543	అసహనం
-4.991457	అసహనంతో
-4.991457	అసహనంపై
-4.815365	అసహనాన్ని
-4.991457	అసాంఘీక
-4.991457	అసాధరాణ
-4.815365	అసాధారణ
-4.815365	అసాధ్యం
-4.991457	అసాధ్యేమనని
-4.991457	అసూయపడి
-4.991457	అసెంటిక్
-3.761008	అసెంబ్లీ
-4.991457	అసెంబ్లీకి
-4.593516	అసెంబ్లీని
-4.338244	అసెంబ్లీలో
-4.991457	అసెంబ్లీలోని
-4.991457	అసోసియేషన
-4.593516	అసౌకర్యం
-4.815365	అసౌకర్యానికి
-4.991457	అసౌకర్యాలు
-4.991457	అస్టేలియాలోనైనా
-4.991457	అస్త
-4.991457	అస్తవ్యస్త
-4.991457	అస్తి
-4.991457	అస్తిత్వ
-4.991457	అస్తుంది
-4.815365	అస్త్రంగా
-4.815365	అస్త్రాలు
-4.991457	అస్థికలను
-4.514335	అస్వస్థతకు
-4.991457	అస్సామీ
-4.991457	అహంకారం
-4.991457	అహంకారంతో
-4.991457	అహనం
-4.991457	అహర్నిశలూ
-4.991457	అహుతులను
-4.991457	అహుమతులును
-4.991457	అహెలా
-4.514335	అహ్మద్
-4.991457	అహ్వానించడంతో
-2.484276	ఆ
-4.991457	ఆంక్షలను
-4.338244	ఆంక్షలు
-4.991457	ఆంక్షలుఅమరావతి
-4.292487	ఆంగ్ల
-4.991457	ఆంగ్లంలో
-4.991457	ఆంగ్లపత్రిక
-4.991457	ఆంగ్లభాషల్లో
-4.991457	ఆంగ్లేయుల
-4.991457	ఆంజనేయులుకు
-4.815365	ఆంటోనీ
-4.991457	ఆండ్ర
-4.815365	ఆండ్రాయిడ్
-4.991457	ఆందాల
-4.991457	ఆందోలనలు
-4.991457	ఆందోల్
-4.991457	ఆందోళం
-4.991457	ఆందోళకర
-3.235582	ఆందోళన
-4.991457	ఆందోళనకర
-4.514335	ఆందోళనకరంగా
-4.991457	ఆందోళనకరమన్నారు
-4.991457	ఆందోళనకారులతో
-4.991457	ఆందోళనకారులు
-3.970267	ఆందోళనకు
-4.815365	ఆందోళనతో
-4.593516	ఆందోళనను
-4.593516	ఆందోళనల
-4.991457	ఆందోళనలను
-3.894547	ఆందోళనలు
-4.991457	ఆంద్రకు
-4.514335	ఆంద్రప్రదేశ్
-4.389397	ఆంధ్ర
-4.991457	ఆంధ్రకు
-4.514335	ఆంధ్రజ్యోతి
-4.690426	ఆంధ్రప్రదేశలో
-3.155766	ఆంధ్రప్రదేశ్
-4.991457	ఆంధ్రభవన్
-4.991457	ఆంధ్రరాష్ట్ర
-4.991457	ఆంధ్రలో
-4.251094	ఆంధ్రా
-4.991457	ఆంధ్రాలో
-4.991457	ఆంధ్రుడైన
-4.690426	ఆంధ్రుల
-4.991457	ఆంధ్రోళ్లతో
-4.991457	ఆంధ్రోళ్లు
-4.991457	ఆకట్టుకుంంది
-4.991457	ఆకట్టుకుందని
-4.338244	ఆకట్టుకుంది
-4.690426	ఆకట్టుకున్నాయి
-4.815365	ఆకట్టుకున్నారు
-4.991457	ఆకట్టుకోవడానికి
-4.991457	ఆకర్శించి
-4.690426	ఆకర్షణగా
-4.815365	ఆకర్షణీయంగా
-4.815365	ఆకర్షించడమే
-4.815365	ఆకర్షించింది
-4.815365	ఆకర్షించే
-4.815365	ఆకర్షించేందుకు
-4.991457	ఆకర్షితులైన
-4.991457	ఆకర్షిస్తుంది
-4.991457	ఆకర్షిస్తోంది
-4.593516	ఆకలి
-4.991457	ఆకలితో
-4.815365	ఆకలిని
-4.815365	ఆకళింపు
-4.815365	ఆకస్మిక
-4.389397	ఆకస్మికంగా
-4.991457	ఆకాంక్షని
-4.991457	ఆకాంక్షను
-4.991457	ఆకాంక్షపై
-4.690426	ఆకాంక్షలకు
-4.991457	ఆకాంక్షలపై
-4.991457	ఆకాంక్షలు
-4.690426	ఆకాంక్షించారు
-4.991457	ఆకాంక్షిద్దాం
-4.991457	ఆకాంక్షిస్తున్నట్లు
-4.690426	ఆకాశం
-4.690426	ఆకాశంలో
-4.991457	ఆకాశమే
-4.991457	ఆకాశయామనం
-4.991457	ఆకాశవాణి
-4.991457	ఆకాశానికెత్తారు
-4.815365	ఆకాశాన్నంటుతున్న
-4.991457	ఆకాష్
-4.991457	ఆకివీడు
-4.991457	ఆకుటుంబ
-4.690426	ఆకుపచ్చ
-4.991457	ఆకులు
-4.991457	ఆక్టన్
-4.815365	ఆక్రమణ
-4.991457	ఆక్రమణలను
-4.991457	ఆక్రమణలపై
-4.690426	ఆక్రమణలు
-4.991457	ఆక్రమించుకున్న
-4.690426	ఆక్వా
-4.815365	ఆక్షేపనీయమే
-4.991457	ఆఖరి
-4.815365	ఆఖరికి
-4.991457	ఆఖరు
-4.991457	ఆఖర్లో
-4.991457	ఆగడం
-4.815365	ఆగడాలకు
-4.991457	ఆగదని
-4.991457	ఆగబోదన్నారు
-4.991457	ఆగమశాస్త్రాని
-4.991457	ఆగమశాస్త్రానికి
-4.690426	ఆగమేఘాల
-4.991457	ఆగలేక
-4.815365	ఆగలేకపోయారా
-4.991457	ఆగవని
-4.991457	ఆగస్టు
-4.690426	ఆగస్టులో
-4.815365	ఆగారు
-4.447388	ఆగి
-4.991457	ఆగిపోయి
-4.991457	ఆగిపోయింది
-4.991457	ఆగ్నేయ
-3.411673	ఆగ్రహం
-4.991457	ఆగ్రహంకేంద్ర
-4.815365	ఆగ్రహంగా
-4.389397	ఆగ్రహంతో
-4.991457	ఆగ్రహజ్వాలలను
-4.991457	ఆగ్రహజ్వాలలు
-4.514335	ఆగ్రహానికి
-4.690426	ఆగ్రహాన్ని
-4.991457	ఆగ్రహించడం
-4.991457	ఆగ్రహించారు
-4.815365	ఆగ్రహించి
-4.815365	ఆగ్రహించిన
-4.991457	ఆగ్రహిస్తే
-4.991457	ఆగ్రోకు
-4.991457	ఆచంట
-4.815365	ఆచరణలో
-4.991457	ఆచరణలోకి
-4.991457	ఆచరించడానికి
-4.593516	ఆచరించారు
-4.593516	ఆచరించి
-4.991457	ఆచరించినట్టు
-4.991457	ఆచరించేందుకు
-4.991457	ఆచరిస్తుంనారు
-4.991457	ఆచరిస్తున్నారు
-4.991457	ఆచరిస్తూ
-4.991457	ఆచారాలకు
-4.593516	ఆచార్య
-4.690426	ఆచితూచి
-4.991457	ఆచూకి
-4.116395	ఆచూకీ
-4.815365	ఆచ్రేకర్
-4.991457	ఆజమాయిషీ
-4.593516	ఆజాద్
-4.292487	ఆట
-4.593516	ఆటంకం
-4.991457	ఆటంకంగా
-4.991457	ఆటంకమవుతుందన్నారు
-4.389397	ఆటంకాలు
-4.593516	ఆటకు
-4.815365	ఆటగాడని
-4.991457	ఆటగాడికైనా
-4.593516	ఆటగాడిగా
-4.991457	ఆటగాడిని
-4.514335	ఆటగాడు
-4.991457	ఆటగాడైన
-4.447388	ఆటగాళ్ల
-4.690426	ఆటగాళ్లకు
-4.815365	ఆటగాళ్లతో
-4.991457	ఆటగాళ్లను
-4.251094	ఆటగాళ్లు
-4.991457	ఆటగాళ్ళ
-4.991457	ఆటగాళ్ళకు
-4.991457	ఆటగాళ్ళొ
-4.991457	ఆటతీరుతో
-4.815365	ఆటతీరును
-4.991457	ఆటని
-4.815365	ఆటపాటలు
-4.690426	ఆటపై
-4.991457	ఆటలకు
-4.514335	ఆటలో
-4.991457	ఆటల్లో
-4.991457	ఆటవిడుపు
-4.815365	ఆటా
-4.991457	ఆటాపాటలతో
-4.991457	ఆటామస్
-4.389397	ఆటో
-4.991457	ఆటోకు
-4.514335	ఆటోలో
-4.991457	ఆటోవాలాలను
-4.815365	ఆడ
-4.815365	ఆడంబరంగా
-4.815365	ఆడంబరాలకు
-4.991457	ఆడగల
-4.690426	ఆడటం
-4.991457	ఆడటంలో
-4.991457	ఆడటానికి
-4.991457	ఆడడం
-4.815365	ఆడడానికి
-4.991457	ఆడనివ్వాలని
-4.991457	ఆడపడచు
-4.991457	ఆడపడుచు
-4.815365	ఆడపడుచులకు
-4.991457	ఆడపడుచులు
-4.690426	ఆడపిల్ల
-4.991457	ఆడపిల్లకు
-4.815365	ఆడపిల్లగా
-4.815365	ఆడపిల్లలు
-4.991457	ఆడబిడ్డను
-4.991457	ఆడబిడ్డలు
-4.991457	ఆడబిల్లలకు
-4.991457	ఆడశిశువు
-4.991457	ఆడాడని
-4.815365	ఆడాడు
-4.389397	ఆడారు
-4.991457	ఆడాలని
-4.815365	ఆడి
-4.815365	ఆడిందనే
-4.991457	ఆడింది
-4.991457	ఆడిటోరియాలలో
-4.514335	ఆడిన
-4.991457	ఆడినట్లు
-4.690426	ఆడియో
-4.991457	ఆడియోకు
-4.991457	ఆడియోల్లో
-4.991457	ఆడిస్తున్నాడని
-4.991457	ఆడిస్తేనే
-4.991457	ఆడుకుంటామని
-4.815365	ఆడుకుంటున్న
-4.991457	ఆడుతుందో
-4.815365	ఆడుతున్న
-4.991457	ఆడుతున్నా
-4.991457	ఆడుతున్నాడు
-4.991457	ఆడుతున్నారని
-4.991457	ఆడుతున్నారు
-4.690426	ఆడే
-4.815365	ఆడేందుకు
-4.991457	ఆడ్డుకుంటున్నారు
-4.991457	ఆతడి
-4.991457	ఆతనితో
-4.991457	ఆతర్వాత
-4.991457	ఆతిథ్య
-4.815365	ఆతిథ్యం
-4.991457	ఆతురతతో
-4.690426	ఆత్కూరు
-4.389397	ఆత్మ
-4.991457	ఆత్మకథలోని
-4.690426	ఆత్మకూరు
-4.690426	ఆత్మగౌరవ
-4.690426	ఆత్మగౌరవం
-4.991457	ఆత్మగౌరవమని
-4.690426	ఆత్మగౌరవానికి
-4.991457	ఆత్మగౌరవాన్ని
-4.991457	ఆత్మబంధువుని
-4.815365	ఆత్మరక్షణ
-4.815365	ఆత్మరక్షణలో
-4.991457	ఆత్మలకు
-4.815365	ఆత్మవిశ్వాసంతో
-4.991457	ఆత్మస్థైర్యం
-4.991457	ఆత్మహతలకు
-3.352967	ఆత్మహత్య
-3.815365	ఆత్మహత్యకు
-4.991457	ఆత్మహత్యగా
-4.991457	ఆత్మహత్యనల్గొండ
-4.815365	ఆత్మహత్యను
-4.991457	ఆత్మహత్యయతానికి
-4.389397	ఆత్మహత్యల
-4.178543	ఆత్మహత్యలకు
-4.815365	ఆత్మహత్యలను
-4.991457	ఆత్మహత్యలపై
-3.773973	ఆత్మహత్యలు
-4.815365	ఆత్మహత్యా
-4.991457	ఆత్మహత్యాకు
-4.991457	ఆత్మహత్యాయత్నం
-4.593516	ఆత్మహత్యాయత్నానికి
-4.991457	ఆత్మహత్యాయత్నాలు
-4.991457	ఆత్మహత్యాయనికి
-4.338244	ఆత్మాహుతి
-4.690426	ఆత్మీయ
-4.815365	ఆత్మీయత
-4.991457	ఆత్మీయతకే
-4.991457	ఆత్మీయతతో
-4.991457	ఆత్మీయతను
-4.991457	ఆత్మీయతల్లో
-4.991457	ఆత్యది
-4.292487	ఆదరణ
-4.815365	ఆదరాబాదరాగా
-4.991457	ఆదరాభిమానాన్ని
-4.991457	ఆదరాభిమానాలని
-4.991457	ఆదరించారు
-4.815365	ఆదరిస్తారని
-4.991457	ఆదరిస్తారన్నారు
-4.991457	ఆదరిస్తూ
-4.690426	ఆదర్శ
-4.146358	ఆదర్శంగా
-4.991457	ఆదర్శంగానే
-4.991457	ఆదర్సమని
-4.815365	ఆదా
-4.447388	ఆదాయ
-3.690426	ఆదాయం
-4.991457	ఆదాయంతోపాటు
-4.991457	ఆదాయంపై
-4.815365	ఆదాయపన్ను
-4.389397	ఆదాయపు
-4.815365	ఆదాయానికి
-4.815365	ఆదాయాన్ని
-4.991457	ఆదాయాన్నే
-4.991457	ఆదాయాలకు
-4.991457	ఆదారాలు
-4.815365	ఆదాల
-4.690426	ఆది
-4.991457	ఆదికేశవుల
-4.991457	ఆదిత్యనాథ్
-4.815365	ఆదినారాయణ
-4.991457	ఆదినారాయణను
-4.991457	ఆదినారాయణరెడ్డిని
-4.991457	ఆదిపరాశక్తి
-4.991457	ఆదిలాబాద్
-3.202581	ఆదివారం
-4.815365	ఆదివారంనాడు
-4.815365	ఆదివారాలు
-4.991457	ఆదివాసీ
-4.991457	ఆదివాసీలకు
-4.991457	ఆదివాసీలను
-4.991457	ఆదివాసుల
-4.815365	ఆదిశేషగిరి
-4.991457	ఆదిశేషు
-4.690426	ఆదుకుంటామని
-4.991457	ఆదుకుంటున్నామన్నారు
-4.991457	ఆదుకుంటుమన్నారు
-4.690426	ఆదుకునే
-4.447388	ఆదుకునేందుకు
-4.815365	ఆదుకునేవారు
-4.815365	ఆదుకున్న
-4.991457	ఆదుకున్నాడనే
-4.991457	ఆదుకోకపోతే
-4.815365	ఆదుకోమంటే
-4.991457	ఆదుకోవడం
-4.991457	ఆదుకోవడంలో
-4.593516	ఆదుకోవడానికి
-4.593516	ఆదుకోవాలని
-4.991457	ఆదుల
-4.991457	ఆదే
-4.991457	ఆదేవుడు
-4.991457	ఆదేశంతో
-4.991457	ఆదేశా
-4.991457	ఆదేశాల
-4.991457	ఆదేశాలకి
-4.991457	ఆదేశాలతో
-4.991457	ఆదేశాలను
-4.991457	ఆదేశాలపై
-4.991457	ఆదేశాలిచ్చారు
-4.815365	ఆదేశాలిచ్చి
-4.991457	ఆదేశాలిచ్చింది
-3.787337	ఆదేశాలు
-4.815365	ఆదేశాల్లో
-4.991457	ఆదేశి
-4.991457	ఆదేశిం
-4.991457	ఆదేశించడం
-4.991457	ఆదేశించానన్నారు
-4.815365	ఆదేశించామని
-3.584916	ఆదేశించారు
-4.991457	ఆదేశించి
-4.991457	ఆదేశించిందన్నారు
-4.251094	ఆదేశించింది
-4.815365	ఆదేశించిన
-4.690426	ఆదేశించినట్లు
-4.991457	ఆదేశిరచారు
-4.991457	ఆదేశిరచిరది
-4.991457	ఆదేశిస్తున్నట్లు
-4.991457	ఆదోని
-4.991457	ఆదోనిలో
-4.815365	ఆద్మీ
-4.991457	ఆద్యంతం
-4.991457	ఆద్యంతమూ
-4.991457	ఆధాయ
-4.991457	ఆధారం
-3.877513	ఆధారంగా
-4.815365	ఆధారంగానే
-4.991457	ఆధారంగు
-4.991457	ఆధారపడలేదని
-4.178543	ఆధారపడి
-4.991457	ఆధారపడిన
-4.991457	ఆధారపడుతున్నందు
-4.991457	ఆధారపడే
-4.991457	ఆధారపడేలా
-4.991457	ఆధారమైన
-4.991457	ఆధారాలతో
-4.146358	ఆధారాలు
-4.815365	ఆధారాలున్నాయని
-4.593516	ఆధారిత
-4.991457	ఆధారులు
-4.815365	ఆధార్
-4.815365	ఆధిక్యం
-4.991457	ఆధిపత్య
-4.514335	ఆధిపత్యం
-4.991457	ఆధిపత్యంలో
-4.991457	ఆధిపత్యవాదుల
-4.815365	ఆధీనం
-4.815365	ఆధీనంలో
-4.514335	ఆధునిక
-4.815365	ఆధునికతను
-4.991457	ఆధునీకరంగా
-4.991457	ఆధోనిక
-4.991457	ఆధ్యర్యంలో
-4.815365	ఆధ్యర్యాన
-4.991457	ఆధ్యాత్మిక
-4.991457	ఆధ్యాత్మికంపైన
-3.830088	ఆధ్వర్యంలో
-4.991457	ఆధ్వర్యంలోని
-4.213305	ఆధ్వర్యాన
-4.213305	ఆనం
-4.991457	ఆనంతపురం
-4.991457	ఆనంతరం
-4.991457	ఆనంద
-4.088367	ఆనందం
-4.389397	ఆనందంగా
-4.991457	ఆనందంతో
-4.991457	ఆనందంలో
-4.815365	ఆనందపురం
-4.991457	ఆనందబజార్
-4.815365	ఆనందాన్ని
-4.815365	ఆనందించారని
-4.991457	ఆనందిస్తానని
-4.991457	ఆనందిస్తారని
-4.991457	ఆనందోత్సాహాల్లో
-4.690426	ఆనంద్
-4.815365	ఆనకట్ట
-4.991457	ఆనకట్టను
-4.815365	ఆనకట్టలను
-4.991457	ఆనవాయితీ
-4.991457	ఆనవాయితీగా
-4.690426	ఆనవాళ్లు
-4.991457	ఆనవాళ్ళు
-4.815365	ఆనాడు
-4.593516	ఆనుకుని
-4.991457	ఆనుకొని
-4.991457	ఆనూరు
-4.815365	ఆన్
-4.991457	ఆన్స్
-4.815365	ఆపదలో
-4.815365	ఆపబోమని
-4.991457	ఆపరా
-4.815365	ఆపరేటర్లు
-4.991457	ఆపరేటింగ్
-4.690426	ఆపరేషన్
-4.991457	ఆపలేకపోయారు
-4.991457	ఆపలేదు
-4.991457	ఆపాడు
-4.815365	ఆపాదించి
-4.514335	ఆపాలని
-4.991457	ఆపాలన్నారు
-4.690426	ఆపి
-4.991457	ఆపించాలన్నారు
-4.991457	ఆపినట్లు
-4.815365	ఆపివేసి
-4.389397	ఆపే
-4.815365	ఆపేంతవరకు
-4.991457	ఆపేది
-4.991457	ఆపేయడం
-4.690426	ఆపేశారు
-4.815365	ఆపేసింది
-4.991457	ఆపేస్తున్నారని
-4.991457	ఆపేస్తున్నారన్నారు
-4.815365	ఆప్కో
-4.991457	ఆప్ఘనిస్తాన్
-4.815365	ఆప్తుడన్నారు
-4.991457	ఆప్పుడేమో
-4.991457	ఆప్యాయంగా
-4.991457	ఆప్సన్స్
-4.991457	ఆఫర్
-4.991457	ఆఫర్తో
-4.991457	ఆఫర్లపై
-4.991457	ఆఫర్లు
-4.815365	ఆఫీసు
-4.991457	ఆఫీసుకు
-4.593516	ఆఫ్
-4.815365	ఆఫ్ఘన్
-4.991457	ఆఫ్రికాలోని
-4.991457	ఆభరణాలను
-4.690426	ఆభరణాలు
-4.991457	ఆమడుదూరంలో
-4.991457	ఆమదాలవలసలోని
-4.389397	ఆమరణ
-4.991457	ఆమరణదీక్ష
-2.772658	ఆమె
-3.845328	ఆమెకు
-4.447388	ఆమెతో
-4.991457	ఆమెతోపాటు
-4.991457	ఆమెని
-3.593516	ఆమెను
-4.292487	ఆమెపై
-4.991457	ఆమే
-4.213305	ఆమోదం
-4.690426	ఆమోదయోగ్యమైన
-4.991457	ఆమోదించడంవల్లనే
-4.991457	ఆమోదించారు
-4.991457	ఆమోదించాలని
-4.991457	ఆమోదించాలి
-4.991457	ఆమోదించుకుంటే
-4.991457	ఆమోదించేది
-4.991457	ఆమోదింప
-4.991457	ఆమోదిస్తు
-4.690426	ఆమ్
-4.991457	ఆమ్లా
-4.690426	ఆయకట్టు
-4.815365	ఆయకట్టుకు
-4.991457	ఆయకట్టును
-4.815365	ఆయడ్ని
-4.815365	ఆయతుల్లా
-2.166355	ఆయన
-3.568211	ఆయనకు
-4.991457	ఆయనకున్న
-4.690426	ఆయనకే
-4.815365	ఆయనజాబితాలో
-4.991457	ఆయనఢిల్లీలో
-4.251094	ఆయనతో
-4.991457	ఆయనతోనే
-3.690426	ఆయనను
-4.815365	ఆయననే
-4.338244	ఆయనపై
-4.991457	ఆయనలో
-4.991457	ఆయనలోని
-4.991457	ఆయనా
-4.514335	ఆయనే
-4.991457	ఆయనేనని
-4.991457	ఆయన్తో
-4.690426	ఆయన్ని
-4.514335	ఆయన్ను
-3.690426	ఆయా
-4.991457	ఆయాప్రాంతాల్లో
-4.991457	ఆయాశాఖల
-4.991457	ఆయినా
-4.690426	ఆయుత
-4.690426	ఆయుధంగా
-4.991457	ఆయుధంతో
-4.991457	ఆయుధాలతో
-4.815365	ఆయుధాలను
-4.815365	ఆయుధాలు
-4.991457	ఆయురారోగ్యాలతో
-4.991457	ఆయుర్వేద
-4.991457	ఆయుర్వేదంలో
-4.991457	ఆయువుపట్టయిన
-4.991457	ఆయుష్షు
-4.991457	ఆయేల
-4.815365	ఆయేషా
-4.593516	ఆయోగ్
-4.991457	ఆరంబించినట్లు
-4.991457	ఆరంభ
-4.514335	ఆరంభం
-4.991457	ఆరంభంకాలేదు
-4.991457	ఆరంభంలోనే
-4.991457	ఆరంభమైంది
-4.991457	ఆరచనచాడ
-4.991457	ఆరచరించడానికి
-4.991457	ఆరధ్రా
-4.116395	ఆరా
-4.991457	ఆరాంశం
-4.991457	ఆరాటం
-4.991457	ఆరాటపడుతుంటారు
-4.815365	ఆరాటపడ్డారు
-4.991457	ఆరాటపడ్డారో
-4.815365	ఆరాతీయగా
-4.991457	ఆరిటికి
-4.991457	ఆరిపాక
-3.60229	ఆరు
-4.815365	ఆరుగంటల
-4.991457	ఆరుగురికి
-4.292487	ఆరుగురు
-4.991457	ఆరుగులు
-4.991457	ఆరుగొలలో
-4.991457	ఆరుతడి
-4.991457	ఆరునెలల
-4.815365	ఆరునెలలు
-4.991457	ఆరునెలల్లో
-4.815365	ఆరుమాసాల
-4.991457	ఆరువేల
-4.991457	ఆరుసార్లకుపైగా
-4.815365	ఆరేళ్ల
-4.991457	ఆరేళ్లు
-4.991457	ఆరేసింది
-4.389397	ఆరో
-3.912275	ఆరోగ్య
-4.062037	ఆరోగ్యం
-4.690426	ఆరోగ్యంగా
-4.690426	ఆరోగ్యశాఖ
-4.991457	ఆరోగ్యశాఖలో
-4.815365	ఆరోగ్యస్థితి
-4.815365	ఆరోగ్యానికి
-4.338244	ఆరోగ్యాన్ని
-4.991457	ఆరోగ్యాలు
-4.815365	ఆరోజు
-4.991457	ఆరోపణ
-4.991457	ఆరోపణపై
-4.593516	ఆరోపణల
-4.991457	ఆరోపణలకు
-4.815365	ఆరోపణలతో
-4.447388	ఆరోపణలను
-4.991457	ఆరోపణలపై
-3.435154	ఆరోపణలు
-4.690426	ఆరోపణలున్నాయి
-4.991457	ఆరోపణాలు
-4.991457	ఆరోపించాయి
-3.411673	ఆరోపించారు
-4.514335	ఆరోపించింది
-4.991457	ఆరోపించిన
-4.991457	ఆరోపించినట్లు
-4.991457	ఆరోపిస్తుంటారు
-4.991457	ఆరోపిస్తున్న
-4.991457	ఆరోపిస్తున్నాయి
-4.146358	ఆరోపిస్తున్నారు
-4.593516	ఆరోపిస్తూ
-4.991457	ఆరోపిస్తోంది
-4.593516	ఆర్
-4.991457	ఆర్ఎస్ఎస్
-4.991457	ఆర్కీవ్స్
-4.991457	ఆర్కే
-4.991457	ఆర్గ్
-4.991457	ఆర్టికల్
-4.991457	ఆర్టిస్టులు
-4.514335	ఆర్టీసీ
-4.991457	ఆర్ట్స్
-4.593516	ఆర్డర్
-4.991457	ఆర్డర్లు
-4.815365	ఆర్డినెన్సులు
-4.991457	ఆర్డీఎస్
-4.991457	ఆర్డీవో
-4.991457	ఆర్తి
-3.259063	ఆర్థిక
-4.991457	ఆర్థికం
-4.062037	ఆర్థికంగా
-4.991457	ఆర్థికలోటుందని
-4.690426	ఆర్థికశాఖ
-4.991457	ఆర్థికసాయం
-4.991457	ఆర్థికస్తితిని
-4.991457	ఆర్థికస్తితిపై
-4.251094	ఆర్ధిక
-4.690426	ఆర్ధికంగా
-4.991457	ఆర్ధికాభివృద్ధి
-4.991457	ఆర్నాల్డ్
-4.991457	ఆర్పకుండా
-4.991457	ఆర్పారు
-4.991457	ఆర్పివేశారు
-4.815365	ఆర్పీ
-4.815365	ఆర్పే
-4.815365	ఆర్భాటానికే
-4.991457	ఆర్భాటాల
-4.991457	ఆర్యవైశ్య
-4.991457	ఆర్యసమాజ్
-4.690426	ఆర్హత
-4.991457	ఆలంబనగా
-4.991457	ఆలకించాడు
-4.815365	ఆలనా
-4.991457	ఆలపించాలి
-4.991457	ఆలపిస్తూ
-4.690426	ఆలయ
-4.514335	ఆలయం
-4.991457	ఆలయంపై
-4.088367	ఆలయంలో
-4.447388	ఆలయంలోకి
-4.991457	ఆలయంలోని
-4.991457	ఆలయంలోనే
-4.991457	ఆలయప్రాంగణంలో
-4.991457	ఆలయలో
-4.690426	ఆలయానికి
-4.991457	ఆలయాల
-4.991457	ఆలయాలను
-4.991457	ఆలయాలు
-4.815365	ఆలయాల్లో
-4.815365	ఆలవాలంగా
-4.991457	ఆలవాలయంలో
-4.690426	ఆలస్యం
-4.251094	ఆలస్యంగా
-4.991457	ఆలస్యమైందనే
-4.991457	ఆలస్యమైంది
-4.815365	ఆలస్యమైతే
-4.690426	ఆలస్యమైనా
-4.991457	ఆలాపించలగలడు
-4.815365	ఆలింగనం
-4.690426	ఆలూరు
-4.690426	ఆలేరు
-4.991457	ఆలోకయే
-3.930758	ఆలోచన
-4.991457	ఆలోచనకి
-4.991457	ఆలోచనకు
-4.690426	ఆలోచనతో
-4.815365	ఆలోచనను
-4.991457	ఆలోచననే
-4.991457	ఆలోచనలతో
-4.991457	ఆలోచనలపై
-4.292487	ఆలోచనలు
-4.514335	ఆలోచనలో
-4.991457	ఆలోచనలోనే
-4.991457	ఆలోచనా
-4.991457	ఆలోచనాత్మకంగా
-4.593516	ఆలోచనే
-4.991457	ఆలోచనైతే
-4.991457	ఆలోచించరని
-4.991457	ఆలోచించలేదన్నారు
-4.991457	ఆలోచించవద్దని
-4.991457	ఆలోచించారన్నారు
-4.991457	ఆలోచించారు
-4.991457	ఆలోచించాలని
-4.690426	ఆలోచించాలన్నారు
-4.593516	ఆలోచించాల్సిన
-4.815365	ఆలోచించి
-4.514335	ఆలోచించిన
-4.815365	ఆలోచించుకోవాలని
-4.991457	ఆలోచిస్తారన్నారు
-4.991457	ఆలోచిస్తున్నట్లు
-4.991457	ఆలోచిస్తున్నాను
-4.991457	ఆలోచిస్తున్నారని
-4.991457	ఆలోచిస్తున్నారే
-4.815365	ఆలోచిస్తోందని
-4.991457	ఆలౌటైన
-4.991457	ఆలౌట్
-4.815365	ఆల్
-4.991457	ఆల్కాహాల్
-4.991457	ఆల్మారలో
-4.991457	ఆల్విన్
-4.991457	ఆళ్ల
-4.514335	ఆళ్లగడ్డ
-4.991457	ఆళ్లగడ్డకు
-4.815365	ఆళ్ళ
-4.991457	ఆళ్ళగడ్డ
-4.815365	ఆళ్ళగడ్డకు
-4.815365	ఆవకాయ
-4.991457	ఆవనిగడ్డ
-4.593516	ఆవరణలో
-4.991457	ఆవరణలోని
-4.991457	ఆవరించి
-4.213305	ఆవర్తనం
-4.991457	ఆవర్తనాలు
-4.690426	ఆవశ్యకత
-4.991457	ఆవశ్యకతను
-4.991457	ఆవశ్యమన్నారు
-4.991457	ఆవిర్భవ
-4.389397	ఆవిర్భావ
-4.991457	ఆవిర్భావం
-4.991457	ఆవిర్భావానికి
-4.991457	ఆవిషయాన్ని
-4.815365	ఆవిష్కరణ
-4.991457	ఆవిష్కరణకు
-4.991457	ఆవిష్కరణల
-4.815365	ఆవిష్కరణలకు
-4.338244	ఆవిష్కరించారు
-4.991457	ఆవిష్కరించి
-4.991457	ఆవిష్కరించిన
-4.991457	ఆవిష్కరిస్తున్నారు
-4.991457	ఆవుటుపల్లిలో
-4.991457	ఆవును
-4.815365	ఆవురావురంటూ
-4.991457	ఆవులు
-4.991457	ఆవేదం
-3.378673	ఆవేదన
-4.991457	ఆవేదనం
-4.593516	ఆవేదనకు
-4.991457	ఆవేదనజగన్
-4.815365	ఆవేదనతో
-4.991457	ఆవేశపూరితంగా
-4.991457	ఆవేశానికి
-4.991457	ఆవేషన
-4.514335	ఆశ
-4.991457	ఆశక్తి
-4.991457	ఆశగా
-4.991457	ఆశచూపి
-4.991457	ఆశతోనే
-4.991457	ఆశనిపతకంగా
-4.991457	ఆశనిపాతంగా
-4.991457	ఆశపడి
-4.991457	ఆశమని
-4.815365	ఆశయం
-4.815365	ఆశయమని
-4.991457	ఆశయాల
-4.991457	ఆశయాలకు
-4.593516	ఆశయాలను
-4.815365	ఆశయాలు
-4.593516	ఆశల
-4.815365	ఆశలకు
-4.815365	ఆశలతో
-4.690426	ఆశలను
-4.991457	ఆశలపై
-4.292487	ఆశలు
-4.815365	ఆశాజనకంగా
-4.991457	ఆశానిపాతంగా
-4.991457	ఆశాబీ
-4.815365	ఆశాభావం
-4.815365	ఆశావహులు
-4.991457	ఆశావాదినని
-4.991457	ఆశావాదిని
-4.991457	ఆశించడం
-4.991457	ఆశించామని
-4.991457	ఆశించాయి
-4.991457	ఆశించారని
-4.690426	ఆశించారు
-4.690426	ఆశించి
-4.514335	ఆశించిన
-4.815365	ఆశించినా
-4.991457	ఆశిద్దాం
-4.815365	ఆశిరచిన
-4.991457	ఆశిస్తున్నట్లు
-4.815365	ఆశిస్తున్నదీ
-4.991457	ఆశిస్తున్నానని
-4.815365	ఆశిస్తున్నామని
-4.815365	ఆశిస్తున్నారు
-4.815365	ఆశీర్వదించారు
-4.815365	ఆశీర్వదించే
-4.815365	ఆశీర్వాదం
-4.514335	ఆశీస్సులతో
-4.447388	ఆశీస్సులు
-4.447388	ఆశ్చర్యం
-4.815365	ఆశ్చర్యంలో
-4.991457	ఆశ్చర్యకరంగాను
-4.690426	ఆశ్చర్యకరమైన
-4.991457	ఆశ్చర్యపరిచింది
-4.815365	ఆశ్చర్యపోతున్నారు
-4.991457	ఆశ్చర్యపోయాడు
-4.991457	ఆశ్చర్యపోయానని
-4.815365	ఆశ్చర్యపోయారు
-4.815365	ఆశ్చర్యమే
-4.815365	ఆశ్చర్యానికి
-4.991457	ఆశ్యర్యానికి
-4.991457	ఆశ్రద్ధవహించినా
-4.815365	ఆశ్రమ
-4.991457	ఆశ్రమానికి
-4.991457	ఆశ్రమాలకు
-4.991457	ఆశ్రమించారు
-4.991457	ఆశ్రయం
-4.991457	ఆశ్రయమిస్తున్న
-4.991457	ఆశ్రయించడం
-4.991457	ఆశ్రయించవచ్చునని
-4.690426	ఆశ్రయించారు
-4.690426	ఆశ్రయించి
-4.815365	ఆశ్రయించింది
-4.991457	ఆశ్రయించిన
-4.991457	ఆశ్రయిస్తామని
-4.991457	ఆశ్రయిస్తే
-4.991457	ఆషాఢమాసం
-4.991457	ఆషాబీ
-4.991457	ఆషామాషీ
-4.815365	ఆషియా
-4.991457	ఆసంతృప్తితో
-4.991457	ఆసంతృప్తిని
-4.062037	ఆసక్తి
-4.292487	ఆసక్తికర
-4.251094	ఆసక్తికరంగా
-4.690426	ఆసక్తికరంగానే
-4.338244	ఆసక్తికరమైన
-4.447388	ఆసక్తిగా
-4.991457	ఆసక్తిని
-4.991457	ఆసన్నవుతున్నది
-4.690426	ఆసరా
-4.593516	ఆసరాగా
-4.991457	ఆసించలేదన్నారు
-4.815365	ఆసియా
-4.991457	ఆసియాలో
-4.991457	ఆసియాలోని
-4.991457	ఆసియాలోనే
-4.991457	ఆసిస్
-4.991457	ఆసీస్
-4.991457	ఆసు
-4.389397	ఆసుపత్రి
-3.536612	ఆసుపత్రికి
-4.991457	ఆసుపత్రికెళ్లి
-4.815365	ఆసుపత్రిని
-4.991457	ఆసుపత్రిల
-3.877513	ఆసుపత్రిలో
-4.991457	ఆసుపత్రిలోచికిత్స
-4.991457	ఆసుపత్రుల
-4.447388	ఆసుపత్రులకు
-4.991457	ఆసుపత్రులలో
-4.991457	ఆసుపత్రులో
-4.815365	ఆసుపత్రుల్లో
-4.991457	ఆసే్ట్రలియా
-4.690426	ఆస్కారం
-4.991457	ఆస్కారమేర్పడుతుందని
-3.970267	ఆస్ట్రేలియా
-4.815365	ఆస్ట్రేలియాకు
-4.991457	ఆస్ట్రేలియాతో
-4.815365	ఆస్ట్రేలియాపై
-4.991457	ఆస్ట్రేలియాలు
-4.991457	ఆస్ట్రేలియాలో
-4.991457	ఆస్ట్రేలియాలోని
-4.088367	ఆస్తి
-4.593516	ఆస్తిని
-4.991457	ఆస్తిపన్నుల్లో
-4.815365	ఆస్తిలో
-4.178543	ఆస్తుల
-4.447388	ఆస్తులను
-4.815365	ఆస్తులన్నీ
-4.514335	ఆస్తులపై
-3.912275	ఆస్తులు
-4.991457	ఆస్తులున్నాయి
-4.213305	ఆస్పత్రి
-3.712703	ఆస్పత్రికి
-4.815365	ఆస్పత్రిల
-4.013733	ఆస్పత్రిలో
-4.690426	ఆస్పత్రిలోని
-4.991457	ఆస్పత్రిల్లో
-4.690426	ఆస్పత్రులకు
-4.815365	ఆస్పత్రులు
-4.690426	ఆస్పత్రుల్లో
-4.991457	ఆస్వాదించినట్లయితే
-4.815365	ఆస్వాదిస్తున్నారు
-4.815365	ఆహంకారం
-4.389397	ఆహార
-4.690426	ఆహారం
-4.991457	ఆహారతి
-4.991457	ఆహారానికి
-4.690426	ఆహారాన్ని
-4.991457	ఆహావానం
-4.991457	ఆహుతి
-4.991457	ఆహూతులను
-4.991457	ఆహ్లదంగా
-4.991457	ఆహ్లాదం
-4.593516	ఆహ్లాదకరమైన
-4.690426	ఆహ్వాన
-4.389397	ఆహ్వానం
-4.991457	ఆహ్వానాలు
-4.991457	ఆహ్వానించగా
-4.815365	ఆహ్వానించడం
-4.815365	ఆహ్వానించదగిన
-4.991457	ఆహ్వానించనున్నారు
-4.991457	ఆహ్వానించలేదని
-4.991457	ఆహ్వానించలేదన్నారు
-4.991457	ఆహ్వానించవచ్చునని
-4.690426	ఆహ్వానించాడు
-4.389397	ఆహ్వానించారు
-4.991457	ఆహ్వానించాలనే
-4.815365	ఆహ్వానించింది
-4.815365	ఆహ్వానించిన
-4.815365	ఆహ్వానించినట్లు
-4.991457	ఆహ్వానించినట్లుగా
-4.815365	ఆహ్వానించే
-4.690426	ఆహ్వానించేందుకు
-4.991457	ఆహ్వానితులకు
-4.815365	ఆహ్వానిరచేరదుకు
-4.815365	ఆహ్వానిస్తామని
-4.991457	ఆహ్వానిస్తున్న
-4.991457	ఆహ్వానిస్తున్నాను
-4.991457	ఆహ్వానిస్తున్నారు
-4.815365	ఇ
-3.435154	ఇంకా
-4.991457	ఇంకాపూర్తి
-4.815365	ఇంకుడు
-4.991457	ఇంకేమంటారో
-4.991457	ఇంకొ
-4.991457	ఇంకొంతమంది
-4.991457	ఇంకొన్ని
-4.991457	ఇంకొల్లులో
-4.991457	ఇంకో
-4.991457	ఇంగువ
-4.815365	ఇంగ్లండుపై
-4.991457	ఇంగ్లాండు
-4.447388	ఇంగ్లాండ్
-4.991457	ఇంగ్లాడ్
-4.815365	ఇంచార్జీ
-4.991457	ఇంచెల
-4.991457	ఇంఛార్జ్
-4.991457	ఇంజక్షన్
-4.514335	ఇంజనీరింగ్
-4.690426	ఇంజినీరింగ్
-4.815365	ఇంట
-4.593516	ఇంటర్నెట్
-4.991457	ఇంటర్నేషనల్
-4.991457	ఇంటర్మీడియట్
-4.991457	ఇంటర్వ్యూ
-4.991457	ఇంటర్వ్యూలో
-3.568211	ఇంటి
-4.991457	ఇంటింటా
-4.690426	ఇంటింటికీ
-3.447388	ఇంటికి
-4.991457	ఇంటికీ
-4.991457	ఇంటికెళ్లి
-4.991457	ఇంటికొచ్చి
-4.815365	ఇంటికొచ్చిన
-4.815365	ఇంటికో
-4.815365	ఇంటిగోడ
-4.690426	ఇంటిని
-4.991457	ఇంటిపై
-4.991457	ఇంటిముందు
-4.991457	ఇంటిలిజెన్స్
-4.815365	ఇంటిలో
-4.991457	ఇంటిలోఆత్మహత్య
-4.991457	ఇంటిలోని
-4.690426	ఇంటిలోనే
-4.991457	ఇంటెక్స్
-4.991457	ఇంటెలిజెన్స్
-4.991457	ఇంటెల్
-3.712703	ఇంట్లో
-4.991457	ఇంట్లోంచి
-4.389397	ఇంట్లోకి
-4.690426	ఇంట్లోని
-4.991457	ఇంట్లోనుండే
-4.991457	ఇంట్లోనే
-4.991457	ఇండస్ట్రల్
-4.991457	ఇండి
-4.815365	ఇండియన్
-4.815365	ఇండియన్స్
-4.593516	ఇండియా
-4.991457	ఇండియాకే
-4.991457	ఇండియాలో
-4.815365	ఇండోనేషియా
-4.690426	ఇండ్లు
-3.877513	ఇంత
-4.690426	ఇంతకంటే
-4.991457	ఇంతకాలం
-4.815365	ఇంతకీ
-4.593516	ఇంతకు
-4.991457	ఇంతకుముందు
-4.991457	ఇంతచొరవ
-4.991457	ఇంతటి
-4.815365	ఇంతటితో
-4.447388	ఇంతలో
-4.690426	ఇంతలోనే
-4.178543	ఇంతవరకు
-4.690426	ఇంతవరకూ
-4.991457	ఇందరు
-4.815365	ఇందిరమ్మ
-4.690426	ఇందిరా
-4.991457	ఇందిరాగాంధీ
-4.815365	ఇందు
-3.611245	ఇందుకు
-4.991457	ఇందుకూరుపేట
-4.447388	ఇందుకోసం
-3.659018	ఇందులో
-4.991457	ఇందులోని
-4.991457	ఇంద్ర
-4.815365	ఇంద్రకరణ్
-4.991457	ఇంద్రకిరణ్
-4.815365	ఇంద్రకీలాద్రిపై
-4.991457	ఇంద్రపాలనగరం
-4.991457	ఇంద్రానూయి
-4.815365	ఇంద్రారెడ్డి
-4.815365	ఇంధన
-4.690426	ఇంధనశాఖ
-4.991457	ఇంపాజిబుల్
-3.394859	ఇక
-4.991457	ఇకత్
-4.991457	ఇకనైనా
-4.447388	ఇకపై
-4.690426	ఇకపోతే
-4.991457	ఇక్
-4.991457	ఇక్కట్లు
-3.701422	ఇక్కడ
-4.991457	ఇక్కడంతా
-4.447388	ఇక్కడకు
-4.991457	ఇక్కడాలేని
-4.146358	ఇక్కడి
-4.213305	ఇక్కడికి
-4.991457	ఇక్కడితో
-4.251094	ఇక్కడే
-4.991457	ఇక్బాల్
-4.991457	ఇక్ష్వాకులు
-4.991457	ఇచ్చమని
-4.514335	ఇచ్చాడు
-4.514335	ఇచ్చానని
-4.815365	ఇచ్చామని
-4.991457	ఇచ్చామన్నారు
-4.815365	ఇచ్చాయి
-4.088367	ఇచ్చారని
-4.991457	ఇచ్చారా
-3.333445	ఇచ్చారు
-4.088367	ఇచ్చి
-4.593516	ఇచ్చిందని
-4.991457	ఇచ్చిందనే
-4.013733	ఇచ్చింది
-3.243268	ఇచ్చిన
-4.991457	ఇచ్చినంత
-4.514335	ఇచ్చినట్లు
-4.991457	ఇచ్చినపుడు
-4.690426	ఇచ్చినా
-4.991457	ఇచ్చిపుచ్చుకుంటూ
-4.815365	ఇచ్చుకున్న
-4.991457	ఇచ్చుకున్నారు
-4.991457	ఇచ్చుకోలేనని
-4.815365	ఇచ్చుకోవాల్సిందేనని
-4.991457	ఇచ్చుట
-3.801125	ఇచ్చే
-4.146358	ఇచ్చేందుకు
-4.815365	ఇచ్చేయాలని
-4.991457	ఇచ్చేలా
-4.991457	ఇచ్చేవరకూ
-4.991457	ఇచ్చేవాడినని
-4.991457	ఇచ్చేశామని
-4.991457	ఇచ్చేసింది
-4.815365	ఇచ్చేస్తామన్నారు
-4.991457	ఇచ్ఛాపురం
-4.815365	ఇజ్రాయెల్
-4.815365	ఇటలీ
-4.991457	ఇటాలిక్
-4.991457	ఇటిక్యాల
-3.384001	ఇటీవల
-4.338244	ఇటీవలి
-4.292487	ఇటీవలే
-4.251094	ఇటు
-4.991457	ఇటుక
-4.991457	ఇటుకల
-4.991457	ఇటుగా
-4.037214	ఇటువంటి
-4.991457	ఇటూ
-4.991457	ఇడ్లిబ్
-4.991457	ఇతడితోపాటు
-4.991457	ఇతనిపై
-3.417425	ఇతర
-4.991457	ఇతరత్రా
-4.292487	ఇతరుల
-4.815365	ఇతరులకు
-4.991457	ఇతరులతో
-4.991457	ఇతరులను
-4.447388	ఇతరులు
-4.991457	ఇతివృత్తంగా
-4.991457	ఇతోధికంగా
-4.991457	ఇత్తడి
-4.338244	ఇదంతా
-4.991457	ఇదరు
-4.991457	ఇదర్
-3.314763	ఇది
-4.991457	ఇదిగాక
-4.991457	ఇదిగో
-4.013733	ఇదిలా
-4.593516	ఇదిలావుంటే
-4.991457	ఇదిలావుండగా
-4.815365	ఇదివరకటిలా
-4.991457	ఇదివరకు
-3.275453	ఇదే
-4.815365	ఇదేనని
-4.815365	ఇదేనా
-4.991457	ఇదేమి
-4.991457	ఇదొక
-3.970267	ఇద్దరి
-4.991457	ఇద్దరికి
-4.514335	ఇద్దరితో
-4.991457	ఇద్దరిదీ
-4.593516	ఇద్దరిని
-4.690426	ఇద్దరినీ
-4.991457	ఇద్దరీ
-3.185277	ఇద్దరు
-4.991457	ఇద్దరుల
-4.251094	ఇద్దరూ
-4.991457	ఇద్దామనుకున్నామని
-4.690426	ఇనుప
-4.815365	ఇన్
-4.991457	ఇన్నాళ్లు
-4.991457	ఇన్నాళ్లుగా
-4.991457	ఇన్నాళ్లూ
-4.514335	ఇన్ని
-4.991457	ఇన్నేళ్ళుగా
-4.991457	ఇపటికే
-4.815365	ఇపుడు
-4.991457	ఇప్టా
-3.544298	ఇప్పటి
-4.991457	ఇప్పటికప్పుడు
-4.690426	ఇప్పటికి
-4.690426	ఇప్పటికిప్పుడు
-4.815365	ఇప్పటికిప్పుడైతే
-3.950064	ఇప్పటికీ
-3.394859	ఇప్పటికే
-4.991457	ఇప్పటికేడు
-4.991457	ఇప్పటికై
-4.991457	ఇప్పటికైతే
-4.037214	ఇప్పటికైనా
-4.991457	ఇప్పటికైనాచంద్రబాబు
-4.690426	ఇప్పటిదాకా
-4.991457	ఇప్పటినుండే
-4.991457	ఇప్పటినే
-4.514335	ఇప్పటివరకు
-4.690426	ఇప్పటివరకూ
-4.447388	ఇప్పట్లో
-4.991457	ఇప్పడికే
-4.815365	ఇప్పడు
-4.815365	ఇప్పించలేకపోయారని
-4.690426	ఇప్పించారు
-4.815365	ఇప్పించాలని
-4.593516	ఇప్పిస్తామని
-4.991457	ఇప్పిస్తున్నట్టు
-4.991457	ఇప్పుటి
-4.991457	ఇప్పుడప్పుడే
-4.991457	ఇప్పుడవి
-4.991457	ఇప్పుడిక్కడ
-4.991457	ఇప్పుడిప్పుడే
-3.199065	ఇప్పుడు
-4.690426	ఇప్పుడున్న
-4.991457	ఇప్పుడూ
-4.213305	ఇప్పుడే
-4.815365	ఇప్పుడేమో
-4.991457	ఇప్పులేవ్
-4.991457	ఇఫ్తార్
-4.815365	ఇబ్బం
-3.801125	ఇబ్బంది
-4.690426	ఇబ్బందికర
-4.991457	ఇబ్బందిగా
-4.447388	ఇబ్బందుల
-4.292487	ఇబ్బందులకు
-4.991457	ఇబ్బందులతోనే
-4.146358	ఇబ్బందులను
-4.991457	ఇబ్బందులనూ
-3.368207	ఇబ్బందులు
-4.991457	ఇబ్బందులుపడుతున్నారు
-4.991457	ఇబ్బందులుపొగమంచు
-4.991457	ఇబ్బందులూ
-4.991457	ఇబ్బందుల్లేకుండా
-4.146358	ఇబ్బందుల్లో
-4.991457	ఇబ్బందుల్లోకి
-4.991457	ఇబ్బందే
-4.815365	ఇబ్రహీం
-4.690426	ఇబ్రహీంపట్నం
-4.991457	ఇబ్రహీంపట్నంలో
-4.991457	ఇమడలేకపోయారు
-4.991457	ఇమిడి
-4.991457	ఇమేజీ
-4.815365	ఇమ్రాన్
-4.991457	ఇయాన్
-4.991457	ఇయ్యడం
-4.991457	ఇరకా
-4.815365	ఇరకాటంలో
-4.815365	ఇరత
-4.815365	ఇరదులో
-4.991457	ఇరవయ్యే
-4.062037	ఇరవై
-4.991457	ఇరవైన
-4.991457	ఇరాక్
-4.292487	ఇరానీ
-4.991457	ఇరానీల
-4.389397	ఇరాన్
-4.991457	ఇరికిస్తారో
-4.815365	ఇరిగేషన్
-3.60229	ఇరు
-4.815365	ఇరుకున
-4.991457	ఇరుక్కునిపోయిన
-4.991457	ఇరుక్కున్నారు
-4.991457	ఇరుక్కుపోయాను
-4.690426	ఇరుగు
-4.815365	ఇరుగుపొరుగు
-4.991457	ఇరుచుకుపడ్డారు
-4.991457	ఇరుదేశాల
-4.815365	ఇరుపక్షాల
-4.991457	ఇరుముడిని
-4.514335	ఇరువర్గాల
-4.991457	ఇరువర్గాలకు
-4.146358	ఇరువురి
-4.251094	ఇరువురు
-4.991457	ఇరువురుకి
-4.991457	ఇరువుల
-4.991457	ఇరువులకు
-4.815365	ఇరువైపులా
-4.991457	ఇరుసు
-4.991457	ఇర్కుకున్ని
-4.514335	ఇర్ఫాన్
-4.991457	ఇలపర్రులో
-3.384001	ఇలా
-3.423255	ఇలాంటి
-4.991457	ఇలాకాలో
-4.338244	ఇలాగే
-4.991457	ఇల్ల
-4.088367	ఇల్లు
-4.815365	ఇల్లుగడిచే
-4.991457	ఇల్లుగా
-4.292487	ఇళ్ల
-4.447388	ఇళ్లకు
-4.991457	ఇళ్లకే
-4.447388	ఇళ్లను
-4.991457	ఇళ్లనే
-4.991457	ఇళ్లన్నీ
-4.991457	ఇళ్లపై
-4.447388	ఇళ్లలో
-4.338244	ఇళ్లలోకి
-4.991457	ఇళ్లలోను
-4.991457	ఇళ్లలోనే
-4.991457	ఇళ్లల్లో
-4.338244	ఇళ్లు
-4.991457	ఇళ్ళ
-4.991457	ఇళ్ళల్లోంచి
-4.815365	ఇళ్ళు
-4.991457	ఇవన్ని
-4.690426	ఇవన్నీ
-4.991457	ఇవాంకాకు
-4.991457	ఇవాటి
-4.991457	ఇవాన్స్
-4.991457	ఇవాల్సిన
-4.690426	ఇవాళ
-4.389397	ఇవి
-4.991457	ఇవే
-4.815365	ఇవ్వ
-4.991457	ఇవ్వం
-4.815365	ఇవ్వక
-4.991457	ఇవ్వకతప్పని
-4.690426	ఇవ్వకపోతే
-4.991457	ఇవ్వకపోయినా
-4.991457	ఇవ్వకపోవచ్చు
-4.514335	ఇవ్వకపోవడం
-4.815365	ఇవ్వకపోవడంతో
-4.447388	ఇవ్వకుంటే
-4.389397	ఇవ్వకుండా
-4.991457	ఇవ్వగలనని
-4.991457	ఇవ్వగలిగితే
-4.991457	ఇవ్వచ్చనే
-3.930758	ఇవ్వడం
-4.815365	ఇవ్వడంతో
-4.815365	ఇవ్వడంపై
-4.991457	ఇవ్వడంలేదని
-4.991457	ఇవ్వడంలో
-4.991457	ఇవ్వడమనే
-4.514335	ఇవ్వడమే
-4.815365	ఇవ్వడమేనని
-4.292487	ఇవ్వడానికి
-4.690426	ఇవ్వదని
-4.690426	ఇవ్వనని
-4.991457	ఇవ్వనప్పటికీ
-4.514335	ఇవ్వని
-4.593516	ఇవ్వనున్నట్లు
-4.991457	ఇవ్వనున్నారు
-4.991457	ఇవ్వబోతున్నాం
-4.690426	ఇవ్వమని
-4.991457	ఇవ్వమన్నారు
-4.991457	ఇవ్వరని
-4.991457	ఇవ్వలేకపోతున్నానని
-4.991457	ఇవ్వలేకపోతున్నారు
-4.991457	ఇవ్వలేకపోయామని
-4.447388	ఇవ్వలేదని
-4.991457	ఇవ్వలేదనే
-4.815365	ఇవ్వలేదన్నారు
-4.338244	ఇవ్వలేదు
-4.991457	ఇవ్వలేని
-4.991457	ఇవ్వలేమంది
-4.690426	ఇవ్వలేమని
-4.991457	ఇవ్వలేరని
-4.991457	ఇవ్వవచ్చునని
-4.991457	ఇవ్వాలంటూ
-3.649034	ఇవ్వాలని
-4.991457	ఇవ్వాలనీ
-4.991457	ఇవ్వాలనే
-4.815365	ఇవ్వాలన్న
-4.991457	ఇవ్వాలన్నది
-4.815365	ఇవ్వాలన్నారు
-4.991457	ఇవ్వాలే
-4.991457	ఇవ్వాలో
-4.815365	ఇవ్వాల్సి
-4.991457	ఇవ్వాల్సిందేనని
-4.593516	ఇవ్వాల్సిన
-4.514335	ఇషాంత్
-4.991457	ఇషిజూ
-4.037214	ఇష్టం
-4.815365	ఇష్టంగా
-4.815365	ఇష్టపడటం
-4.815365	ఇష్టపడడం
-4.991457	ఇష్టపడతామనేది
-4.991457	ఇష్టపడలేదు
-4.991457	ఇష్టపడి
-4.991457	ఇష్టపడితే
-4.991457	ఇష్టపడిన
-4.991457	ఇష్టప్రకారం
-4.338244	ఇష్టమని
-4.991457	ఇష్టముండదు
-4.991457	ఇష్టమైందని
-4.991457	ఇష్టమైనదని
-4.991457	ఇష్టా
-4.991457	ఇష్టానుసారం
-4.991457	ఇష్టారాజ్యంగా
-4.991457	ఇష్టారీతిగా
-4.991457	ఇష్టారీతిన
-4.991457	ఇష్టారీతిని
-4.116395	ఇసుక
-4.991457	ఇసుకకు
-4.815365	ఇసుకను
-4.991457	ఇసుకపాలెంవద్ద
-4.991457	ఇసుమంత
-4.991457	ఇసుమంతైనా
-4.991457	ఇస్కా
-4.991457	ఇస్తాంబుల్
-4.991457	ఇస్తానంటున్నారని
-4.389397	ఇస్తానని
-4.991457	ఇస్తానన్న
-4.991457	ఇస్తాను
-4.690426	ఇస్తామంటూ
-4.815365	ఇస్తామంటే
-3.748418	ఇస్తామని
-4.991457	ఇస్తామనే
-4.991457	ఇస్తామన్న
-4.251094	ఇస్తామన్నారు
-4.815365	ఇస్తామే
-4.815365	ఇస్తారని
-4.815365	ఇస్తారనుకుంటే
-4.991457	ఇస్తారనే
-4.991457	ఇస్తారన్నది
-4.815365	ఇస్తారా
-4.815365	ఇస్తారో
-4.991457	ఇస్తాల
-4.991457	ఇస్తుండటంతో
-4.593516	ఇస్తుందని
-4.991457	ఇస్తుందన్న
-4.991457	ఇస్తుందో
-4.447388	ఇస్తున్న
-4.815365	ఇస్తున్నట్లు
-4.991457	ఇస్తున్నప్పటికీ
-4.815365	ఇస్తున్నా
-4.690426	ఇస్తున్నాం
-4.815365	ఇస్తున్నాను
-4.815365	ఇస్తున్నామని
-4.815365	ఇస్తున్నారని
-4.991457	ఇస్తున్నారన్నారు
-4.514335	ఇస్తున్నారు
-4.389397	ఇస్తూ
-4.213305	ఇస్తే
-4.593516	ఇస్తోందని
-4.447388	ఇస్లాం
-4.991457	ఇస్లాంలోకి
-4.593516	ఇస్లామిక్
-4.991457	ఇస్లామ్
-4.991457	ఇ్వాలని
-1.987996	ఈ
-4.991457	ఈఐ
-4.991457	ఈఓ
-4.815365	ఈకలు
-4.991457	ఈఘటనకు
-4.991457	ఈచిత్ర
-4.991457	ఈజిప్ట్
-4.991457	ఈటీఎస్
-4.251094	ఈటెల
-4.991457	ఈటెలకు
-4.991457	ఈడ్చుకుపోయింది
-4.991457	ఈడ్చుకెళ్లి
-4.991457	ఈడ్చుకొచ్చి
-4.991457	ఈత
-4.447388	ఈతకు
-4.991457	ఈతగాళ్లు
-4.991457	ఈతముక్కల
-4.991457	ఈతరం
-4.991457	ఈతెలుగు
-4.991457	ఈదుర
-4.514335	ఈదురు
-4.593516	ఈదురుగాలులతో
-4.815365	ఈదురుగాలులు
-4.991457	ఈనాటి
-4.815365	ఈనాటిది
-4.593516	ఈనాడు
-4.991457	ఈనేపథ్యంలో
-4.991457	ఈపాటి
-4.991457	ఈపాటికి
-4.991457	ఈపాటికే
-4.991457	ఈపూరులకు
-4.991457	ఈమధ్య
-4.690426	ఈమె
-4.991457	ఈమెయిల్
-4.338244	ఈమేరకు
-4.815365	ఈయన
-4.251094	ఈరోజు
-4.991457	ఈరోస్
-4.991457	ఈర్ష
-4.815365	ఈలోగా
-4.815365	ఈలోగానే
-4.991457	ఈలోపు
-4.991457	ఈవో
-4.991457	ఈశర్వమ్మను
-4.593516	ఈశాన్య
-4.991457	ఈశాన్యం
-4.991457	ఈశ్వరన్
-4.815365	ఈశ్వరి
-4.991457	ఈషారేఖకు
-4.815365	ఈసందర్భంగా
-4.991457	ఈసడించుకుంటునట్లు
-3.991457	ఈసారి
-4.991457	ఉ
-4.690426	ఉంగరాలు
-4.690426	ఉంచామని
-4.991457	ఉంచామన్నారు
-4.514335	ఉంచారు
-4.815365	ఉంచాలని
-4.991457	ఉంచాలన్నారు
-4.991457	ఉంచాలి
-4.991457	ఉంచి
-4.991457	ఉంచింది
-4.815365	ఉంచిన
-4.991457	ఉంచు
-4.514335	ఉంచుకుని
-4.991457	ఉంచుకున్నట్లు
-4.991457	ఉంచుకున్నానని
-4.815365	ఉంచుకొని
-4.991457	ఉంచేందుకు
-4.991457	ఉంచేవాడు
-4.991457	ఉంచేసింది
-4.991457	ఉంటంది
-4.991457	ఉంటాం
-4.593516	ఉంటాడని
-4.991457	ఉంటాడు
-4.815365	ఉంటానంటూ
-4.251094	ఉంటానని
-4.991457	ఉంటానన్నారు
-4.991457	ఉంటానాని
-3.970267	ఉంటామని
-4.815365	ఉంటామన్నారు
-4.991457	ఉంటాయ
-3.970267	ఉంటాయని
-4.593516	ఉంటాయనే
-4.815365	ఉంటాయనేది
-4.991457	ఉంటాయన్న
-4.690426	ఉంటాయన్నారు
-4.062037	ఉంటాయి
-4.991457	ఉంటాయో
-4.991457	ఉంటారంటున్నారు
-4.815365	ఉంటారట
-3.845328	ఉంటారని
-4.815365	ఉంటారనే
-4.991457	ఉంటారన్నారు
-4.815365	ఉంటారా
-4.593516	ఉంటారు
-4.991457	ఉంటారే
-4.991457	ఉంటారో
-4.991457	ఉంటుండడంతో
-3.459977	ఉంటుందని
-4.514335	ఉంటుందనే
-4.991457	ఉంటుందన్న
-4.991457	ఉంటుందన్ననమ్మకం
-4.146358	ఉంటుందన్నారు
-4.815365	ఉంటుందా
-4.991457	ఉంటుందానే
-3.568211	ఉంటుంది
-4.991457	ఉంటుందిని
-4.447388	ఉంటుందో
-4.991457	ఉంటునారు
-4.338244	ఉంటున్న
-4.815365	ఉంటున్నట్లు
-4.815365	ఉంటున్నది
-4.690426	ఉంటున్నాడు
-4.991457	ఉంటున్నామని
-4.815365	ఉంటున్నాయి
-4.690426	ఉంటున్నారని
-4.447388	ఉంటున్నారు
-4.292487	ఉంటూ
-4.815365	ఉంటూనే
-4.991457	ఉంటె
-3.536612	ఉంటే
-4.991457	ఉంటేనే
-4.991457	ఉంటోందని
-4.338244	ఉంటోంది
-4.991457	ఉంటోందో
-4.991457	ఉండ
-4.991457	ఉండకపోతున్న
-4.991457	ఉండకపోతే
-4.991457	ఉండకపోయేదన్నారు
-4.991457	ఉండకపోవడం
-4.991457	ఉండకపోవడంలోని
-4.991457	ఉండగ
-4.991457	ఉండగలగాలనేది
-4.991457	ఉండగలుగుతున్నారు
-3.801125	ఉండగా
-3.950064	ఉండటం
-4.037214	ఉండటంతో
-4.991457	ఉండటంతోపాటు
-4.991457	ఉండటమూ
-4.447388	ఉండటమే
-4.991457	ఉండటానికి
-4.815365	ఉండటాన్ని
-4.037214	ఉండడం
-3.991457	ఉండడంతో
-4.991457	ఉండడంద్వారా
-4.593516	ఉండడానికి
-3.950064	ఉండదని
-4.991457	ఉండదనే
-4.593516	ఉండదన్నారు
-4.514335	ఉండదు
-4.991457	ఉండనన్నారు
-4.991457	ఉండనివ్వండి
-4.815365	ఉండరాదని
-4.991457	ఉండరాపాలెంలో
-4.991457	ఉండరు
-4.991457	ఉండరో
-4.991457	ఉండలేకపోయారు
-4.991457	ఉండలేకపోయింది
-4.815365	ఉండలేరు
-4.447388	ఉండవచ్చని
-4.447388	ఉండవచ్చు
-4.389397	ఉండవచ్చునని
-4.991457	ఉండవచ్చుననే
-4.389397	ఉండవని
-4.991457	ఉండవలసి
-4.991457	ఉండవల్
-4.292487	ఉండవల్లి
-4.991457	ఉండాల
-3.787337	ఉండాలని
-4.991457	ఉండాలనుకోరని
-4.991457	ఉండాలనేదీ
-4.991457	ఉండాలన్న
-4.991457	ఉండాలన్నదే
-4.251094	ఉండాలన్నారు
-4.514335	ఉండాలి
-4.815365	ఉండాలో
-4.815365	ఉండాల్సి
-4.991457	ఉండాల్సిందని
-4.815365	ఉండాల్సింది
-4.514335	ఉండాల్సిన
-4.013733	ఉండి
-4.991457	ఉండింది
-4.991457	ఉండిపోతుందని
-4.991457	ఉండిపోయాం
-4.991457	ఉండిపోయారు
-4.991457	ఉండిపోయింది
-3.830088	ఉండే
-4.593516	ఉండేందుకు
-4.815365	ఉండేందుకుగాను
-4.690426	ఉండేదని
-4.991457	ఉండేదన్నారు
-4.991457	ఉండేదానిని
-4.514335	ఉండేది
-4.991457	ఉండేదో
-4.251094	ఉండేలా
-4.991457	ఉండేవని
-4.991457	ఉండేవనీ
-4.815365	ఉండేవాడని
-4.991457	ఉండేవాడినని
-4.991457	ఉండేవాడు
-4.991457	ఉండేవారు
-4.991457	ఉండేవి
-4.991457	ఉండొచ్చు
-4.991457	ఉండొచ్చునన్నారు
-4.991457	ఉండ్రాజవరం
-4.991457	ఉందంట
-4.815365	ఉందంటున్నారు
-4.991457	ఉందంటూ
-4.991457	ఉందంటే
-2.887653	ఉందని
-4.991457	ఉందనీ
-4.991457	ఉందనుకుంటారని
-4.815365	ఉందనుకుంటేనే
-4.991457	ఉందనుకోవడం
-4.178543	ఉందనే
-4.815365	ఉందనేది
-4.991457	ఉందన్న
-4.991457	ఉందన్నాయి
-3.319359	ఉందన్నారు
-4.389397	ఉందా
-2.892813	ఉంది
-4.991457	ఉందే
-4.389397	ఉందో
-4.991457	ఉక్కిరి
-4.991457	ఉక్కిరిబిక్కిరి
-4.593516	ఉక్కు
-4.815365	ఉక్కుపాదం
-4.338244	ఉగాది
-4.991457	ఉగ్ర
-4.991457	ఉగ్రదాడి
-4.991457	ఉగ్రదాడుల
-4.593516	ఉగ్రవాద
-4.815365	ఉగ్రవాదం
-4.991457	ఉగ్రవాదానికి
-4.991457	ఉగ్రవాదాన్ని
-4.991457	ఉగ్రవాది
-4.991457	ఉగ్రవాదిని
-4.991457	ఉగ్రవాదినో
-4.991457	ఉగ్రవాదు
-4.213305	ఉగ్రవాదుల
-4.991457	ఉగ్రవాదులకు
-4.991457	ఉగ్రవాదులతో
-4.815365	ఉగ్రవాదులను
-4.991457	ఉగ్రవాదులపై
-4.991457	ఉగ్రవాదులలో
-4.178543	ఉగ్రవాదులు
-4.991457	ఉగ్రవాదులూ
-4.991457	ఉగ్రవాదులే
-4.213305	ఉచిత
-4.690426	ఉచితంగా
-4.991457	ఉచ్చులో
-4.991457	ఉడాకు
-4.991457	ఉడికించి
-4.991457	ఉతకడం
-4.991457	ఉతకలేమంటూ
-4.991457	ఉతార
-4.991457	ఉతికి
-4.991457	ఉత్కంట
-4.815365	ఉత్కంఠ
-4.815365	ఉత్కంఠకు
-4.447388	ఉత్తమ
-4.991457	ఉత్తమమని
-4.991457	ఉత్తమమైన
-4.991457	ఉత్తమిస్తోంది
-4.251094	ఉత్తమ్
-3.877513	ఉత్తర
-4.690426	ఉత్తరకొరియా
-4.815365	ఉత్తరప్రదేశ్
-4.292487	ఉత్తరాంధ్ర
-4.815365	ఉత్తరాంధ్రకు
-4.815365	ఉత్తరాంధ్రలో
-4.991457	ఉత్తరాంధ్రలోనే
-4.991457	ఉత్తరాఖండ్
-4.815365	ఉత్తరాది
-4.991457	ఉత్తరాదిన
-4.991457	ఉత్తరాలు
-4.815365	ఉత్తర్వు
-4.815365	ఉత్తర్వులను
-3.801125	ఉత్తర్వులు
-4.991457	ఉత్తర్వులూ
-4.815365	ఉత్తర్వుల్లో
-4.991457	ఉత్తి
-4.815365	ఉత్తీర్ణత
-4.991457	ఉత్తీర్ణులైన
-4.991457	ఉత్తుతిదే
-4.178543	ఉత్పత్తి
-4.991457	ఉత్పత్తికి
-4.815365	ఉత్పత్తుల
-4.447388	ఉత్పత్తులను
-4.690426	ఉత్పత్తులు
-4.991457	ఉత్పత్తులే
-4.991457	ఉత్పన్నమయ్యాయని
-4.991457	ఉత్పన్నమయ్యే
-4.815365	ఉత్పన్నమవుతున్నాయని
-4.991457	ఉత్పన్నమవుతో
-4.991457	ఉత్పన్నమవుతోంది
-4.815365	ఉత్పాదక
-4.991457	ఉత్పాదకత
-4.991457	ఉత్ప్రేరకాలను
-4.991457	ఉత్సవ
-4.991457	ఉత్సవం
-4.991457	ఉత్సవంలో
-4.991457	ఉత్సవాల
-4.991457	ఉత్సవాలంటూ
-4.447388	ఉత్సవాలకు
-4.593516	ఉత్సవాలను
-4.991457	ఉత్సవాలాల్లో
-4.514335	ఉత్సవాలు
-4.991457	ఉత్సవాలో
-4.447388	ఉత్సవాల్లో
-4.815365	ఉత్సవ్
-4.991457	ఉత్సహం
-4.991457	ఉత్సహంగా
-4.991457	ఉత్సాహ
-4.593516	ఉత్సాహం
-4.338244	ఉత్సాహంగా
-4.815365	ఉత్సాహంతో
-4.690426	ఉత్సాహాన్ని
-4.991457	ఉదం
-4.593516	ఉదంతం
-4.991457	ఉదంతంతో
-4.991457	ఉదంతంలో
-3.231789	ఉదయం
-4.991457	ఉదయానికి
-4.991457	ఉదయించడానికి
-4.991457	ఉదయిస్తోంది
-4.991457	ఉదయిస్తోరది
-4.991457	ఉదయ్
-4.991457	ఉదహరించారు
-4.991457	ఉదాసీన
-4.991457	ఉదాసీనంగా
-4.815365	ఉదాహరణ
-4.991457	ఉదాహరణకి
-4.991457	ఉదాహరణలతో
-4.991457	ఉదాహరణలుగా
-4.991457	ఉదృత
-4.991457	ఉదేసం
-4.815365	ఉద్ఘాటించారు
-4.991457	ఉద్దండ
-4.991457	ఉద్దండ్రాయుని
-4.815365	ఉద్దండ్రాయునిపాలెం
-4.991457	ఉద్దాదం
-4.991457	ఉద్దానంలో
-4.991457	ఉద్దేశ
-4.815365	ఉద్దేశం
-4.991457	ఉద్దేశంగా
-4.037214	ఉద్దేశంతో
-4.690426	ఉద్దేశంతోనే
-4.991457	ఉద్దేశంలో
-4.815365	ఉద్దేశపూర్వకంగా
-4.991457	ఉద్దేశమని
-4.991457	ఉద్దేశాన్నీతెలిపారు
-4.447388	ఉద్దేశించి
-4.991457	ఉద్దేశించిన
-4.991457	ఉద్దేశిస్తూ
-4.991457	ఉద్దేశ్యం
-4.447388	ఉద్దేశ్యంతో
-4.690426	ఉద్దేశ్యంలో
-4.991457	ఉద్దేశ్యపూర్వకంగా
-4.815365	ఉద్దేశ్యమని
-4.991457	ఉద్దేశ్యమన్నారు
-4.991457	ఉద్దేశ్యాలు
-4.991457	ఉద్ద్యేశం
-4.991457	ఉద్ధానంలో
-4.991457	ఉద్భోదించారు
-4.116395	ఉద్యమ
-3.830088	ఉద్యమం
-4.593516	ఉద్యమంలా
-4.178543	ఉద్యమంలో
-4.991457	ఉద్యమకారులను
-4.991457	ఉద్యమకారుల్లోనే
-4.991457	ఉద్యమమిస్తున్న
-4.991457	ఉద్యమాకారులకు
-4.251094	ఉద్యమానికి
-3.861123	ఉద్యమాన్ని
-4.815365	ఉద్యమాల
-4.815365	ఉద్యమాలకు
-4.593516	ఉద్యమాలను
-4.991457	ఉద్యమాలనే
-4.991457	ఉద్యమాలలోకి
-4.178543	ఉద్యమాలు
-4.991457	ఉద్యమించడం
-4.991457	ఉద్యమించారు
-4.389397	ఉద్యమించాలని
-4.991457	ఉద్యమించే
-4.991457	ఉద్యమిస్తానని
-4.815365	ఉద్యమిస్తామని
-4.991457	ఉద్యమిస్తున్నా
-4.991457	ఉద్యాన
-4.991457	ఉద్యానవనశాఖ
-4.991457	ఉద్యానవనాలు
-4.991457	ఉద్యానవర్సిటీకి
-4.991457	ఉద్యాశం
-3.950064	ఉద్యోగ
-3.991457	ఉద్యోగం
-4.514335	ఉద్యోగంలో
-4.991457	ఉద్యోగలు
-4.815365	ఉద్యోగాల
-4.991457	ఉద్యోగాలకు
-4.991457	ఉద్యోగాలతో
-4.815365	ఉద్యోగాలను
-4.991457	ఉద్యోగాలివ్వాలన్నారు
-3.815365	ఉద్యోగాలు
-4.991457	ఉద్యోగాలైతే
-4.815365	ఉద్యోగాల్లో
-4.815365	ఉద్యోగావకాశాల
-4.690426	ఉద్యోగావకాశాలు
-4.815365	ఉద్యోగి
-4.991457	ఉద్యోగిని
-3.991457	ఉద్యోగుల
-4.991457	ఉద్యోగులంతా
-4.251094	ఉద్యోగులకు
-4.815365	ఉద్యోగులతో
-4.514335	ఉద్యోగులను
-3.787337	ఉద్యోగులు
-4.991457	ఉద్యోగుల్లో
-4.251094	ఉద్రిక్త
-4.815365	ఉద్రిక్తంగా
-4.292487	ఉద్రిక్తత
-4.991457	ఉద్రిక్తతలు
-4.815365	ఉద్వాసన
-4.991457	ఉద్వాసనను
-4.815365	ఉద్వేగంగా
-4.991457	ఉద్వేగపూరిత
-4.447388	ఉద్వేగానికి
-4.447388	ఉధృతం
-4.593516	ఉధృతి
-4.991457	ఉధ్దేశించి
-4.991457	ఉనికిని
-4.991457	ఉనికిలో
-4.991457	ఉన్
-2.76874	ఉన్న
-4.690426	ఉన్నంత
-4.991457	ఉన్నంతగా
-4.514335	ఉన్నందున
-4.991457	ఉన్నందునే
-4.991457	ఉన్నకాదని
-4.991457	ఉన్నచోటే
-4.251094	ఉన్నట్టు
-4.690426	ఉన్నట్టుండి
-4.991457	ఉన్నట్టుందని
-3.338244	ఉన్నట్లు
-4.251094	ఉన్నట్లుగా
-3.748418	ఉన్నత
-4.991457	ఉన్నతధికారుల
-4.991457	ఉన్నతస్దాయి
-4.991457	ఉన్నతా
-4.815365	ఉన్నతాధికారి
-4.514335	ఉన్నతాధికారుల
-4.690426	ఉన్నతాధికారులకు
-4.213305	ఉన్నతాధికారులతో
-4.690426	ఉన్నతాధికారులను
-4.178543	ఉన్నతాధికారులు
-4.991457	ఉన్నతెలుగువారు
-4.815365	ఉన్నతోద్యోగి
-4.991457	ఉన్నదంతా
-4.690426	ఉన్నదని
-4.991457	ఉన్నదాన్నే
-4.514335	ఉన్నది
-4.991457	ఉన్నదేనని
-4.690426	ఉన్నప్పటికి
-4.146358	ఉన్నప్పటికీ
-4.991457	ఉన్నప్పడు
-4.251094	ఉన్నప్పుడు
-4.690426	ఉన్నప్పుడే
-4.991457	ఉన్నరంటూ
-4.991457	ఉన్నరాములు
-4.991457	ఉన్నరు
-4.991457	ఉన్నవాడు
-4.815365	ఉన్నవారికి
-4.815365	ఉన్నవారితో
-4.338244	ఉన్నవారు
-4.991457	ఉన్నవాళ్లకు
-4.991457	ఉన్నవి
-4.991457	ఉన్నవిగ్రహాలన్నింటిలోను
-3.930758	ఉన్నా
-4.514335	ఉన్నాం
-4.292487	ఉన్నాడని
-4.292487	ఉన్నాడు
-4.991457	ఉన్నాతాధికారి
-4.389397	ఉన్నానని
-4.815365	ఉన్నాననే
-4.815365	ఉన్నానా
-4.815365	ఉన్నాని
-4.690426	ఉన్నానో
-4.991457	ఉన్నామంటూ
-3.970267	ఉన్నామని
-4.991457	ఉన్నామన్నారు
-4.991457	ఉన్నాయంటున్నారు
-3.552124	ఉన్నాయని
-4.991457	ఉన్నాయనీ
-4.815365	ఉన్నాయన్న
-4.213305	ఉన్నాయన్నారు
-3.435154	ఉన్నాయి
-4.690426	ఉన్నాయో
-4.991457	ఉన్నారంటున్నారు
-4.514335	ఉన్నారట
-3.773973	ఉన్నారని
-4.991457	ఉన్నారనుకుంటే
-4.447388	ఉన్నారనే
-4.447388	ఉన్నారన్నారు
-4.514335	ఉన్నారా
-3.310215	ఉన్నారు
-4.991457	ఉన్మాది
-3.507157	ఉప
-4.991457	ఉపఎన్నిక
-4.991457	ఉపకరిస్తుందనే
-4.991457	ఉపకారవేతనాలు
-4.991457	ఉపక్రమించింది
-4.991457	ఉపక్రమించే
-4.991457	ఉపగ్రహాన్ని
-4.815365	ఉపగ్రహాలను
-4.991457	ఉపగ్రహాలు
-4.991457	ఉపదేశాలు
-4.991457	ఉపధ్యా
-4.991457	ఉపనియ
-4.815365	ఉపన్యాసాన్ని
-4.991457	ఉపన్యాసాలు
-4.815365	ఉపముఖ్యమంత్రి
-4.991457	ఉపముఖ్యమంత్రులతో
-4.991457	ఉపయించే
-4.991457	ఉపయుక్తంగా
-4.514335	ఉపయోగం
-4.991457	ఉపయోగంగా
-4.991457	ఉపయోగపడటంలేదు
-4.991457	ఉపయోగపడతాడో
-4.991457	ఉపయోగపడతారని
-4.991457	ఉపయోగపడని
-4.991457	ఉపయోగపడుతాయని
-4.815365	ఉపయోగపడుతుందని
-4.815365	ఉపయోగపడుతుందనేది
-4.815365	ఉపయోగపడుతుందన్నారు
-4.991457	ఉపయోగపడుతోందన్నారు
-4.991457	ఉపయోగపడుతోంది
-4.593516	ఉపయోగపడే
-4.815365	ఉపయోగపడేలా
-4.991457	ఉపయోగబడుతురదని
-4.991457	ఉపయోగాన్ని
-4.991457	ఉపయోగించకూడదని
-4.815365	ఉపయోగించడం
-4.815365	ఉపయోగించారు
-4.991457	ఉపయోగించాలని
-4.991457	ఉపయోగించాలన్నది
-4.690426	ఉపయోగించి
-4.815365	ఉపయోగించిన
-4.991457	ఉపయోగించినా
-4.991457	ఉపయోగించుకుంటామని
-4.815365	ఉపయోగించుకుంటున్నారని
-4.991457	ఉపయోగించుకుంటున్నారు
-4.991457	ఉపయోగించుకుంటూ
-4.815365	ఉపయోగించుకుని
-4.991457	ఉపయోగించుకునేందుకు
-4.991457	ఉపయోగించుకునేలా
-4.815365	ఉపయోగించుకున్నట్లు
-4.991457	ఉపయోగించుకున్నారన్నారు
-4.815365	ఉపయోగించుకున్నారు
-4.690426	ఉపయోగించుకొని
-4.991457	ఉపయోగించే
-4.991457	ఉపయోగిస్తామన్నారు
-4.991457	ఉపయోగిస్తున్నాడు
-4.815365	ఉపయోగిస్తున్నారు
-4.815365	ఉపయోగిస్తూ
-4.815365	ఉపయోగిస్తే
-4.991457	ఉపరించారు
-4.251094	ఉపరితల
-4.991457	ఉపవాస
-4.593516	ఉపశమనం
-4.991457	ఉపసంఘ
-4.991457	ఉపసంఘనం
-4.991457	ఉపసంహరణతో
-4.991457	ఉపసంహరించుకుంటాననే
-4.991457	ఉపసంహరించుకుంటున్నట్లుగా
-4.991457	ఉపసంహరించుకున్నట్టు
-4.991457	ఉపసంహరించుకోవాలని
-4.991457	ఉపసన
-4.991457	ఉపసభాపతి
-4.991457	ఉపా
-4.991457	ఉపాది
-3.435154	ఉపాధి
-4.991457	ఉపాధికి
-4.991457	ఉపాధికూలీలు
-4.815365	ఉపాధిని
-4.991457	ఉపాధిహామీ
-4.991457	ఉపాధ్యక్షలు
-4.690426	ఉపాధ్యక్షుడు
-4.815365	ఉపాధ్యక్షులు
-4.991457	ఉపాధ్యా
-4.389397	ఉపాధ్యాయ
-4.690426	ఉపాధ్యాయుల
-4.593516	ఉపాధ్యాయులకు
-4.991457	ఉపాధ్యాయులతో
-4.815365	ఉపాధ్యాయులను
-4.292487	ఉపాధ్యాయులు
-4.991457	ఉపాధ్యాయులుగా
-4.991457	ఉపాయమే
-4.991457	ఉపేంద్ర
-4.991457	ఉపేంద్రమ్మ
-4.991457	ఉపేక్షించబోనని
-4.991457	ఉపేక్షించరానివని
-4.690426	ఉపేక్షించేది
-4.991457	ఉపేక్షిస్తున్నారని
-4.991457	ఉప్పలగుప్త
-4.991457	ఉప్పలగుప్తం
-4.690426	ఉప్పల్
-4.815365	ఉప్పాడ
-4.690426	ఉప్పు
-4.815365	ఉప్పుగుండూరు
-4.991457	ఉప్పుచల్లాడు
-4.991457	ఉప్పుజల్లాడు
-4.991457	ఉప్పుటేరు
-4.991457	ఉప్పులేటి
-4.991457	ఉప్పొంగిపోయారు
-4.062037	ఉభయ
-4.991457	ఉభయగోదావరి
-4.991457	ఉమరి
-4.251094	ఉమా
-4.593516	ఉమాభారతి
-4.593516	ఉమామహేశ్వర
-4.116395	ఉమామహేశ్వరరావు
-4.991457	ఉమామాధవ
-4.991457	ఉమెన్
-4.991457	ఉమ్
-3.950064	ఉమ్మడి
-4.690426	ఉమ్మడిగా
-4.815365	ఉమ్మారెడ్డి
-4.815365	ఉయ్యందుకు
-4.991457	ఉరటరదని
-4.690426	ఉరటురదని
-4.991457	ఉరటురది
-4.815365	ఉరడగా
-4.991457	ఉరడవని
-4.991457	ఉరవకొండలో
-4.991457	ఉరవిడిగా
-4.178543	ఉరి
-4.991457	ఉరితాడు
-4.991457	ఉరితీయాలని
-4.815365	ఉరితీసి
-4.991457	ఉరిపెట్టి
-4.815365	ఉరివేసుకుని
-4.690426	ఉరివేసుకొని
-4.690426	ఉరిశిక్ష
-4.991457	ఉరుకుంద
-4.815365	ఉరుకులు
-4.593516	ఉరుములతో
-4.514335	ఉరుములు
-4.991457	ఉరేసి
-4.991457	ఉరేసుకుందని
-4.991457	ఉరేసుకుంది
-4.815365	ఉరేసుకుని
-4.991457	ఉరేసుకొని
-4.815365	ఉర్దూలో
-4.815365	ఉర్రూతలూగించింది
-4.991457	ఉర్రోదంటూ
-4.991457	ఉలవపాడు
-4.991457	ఉలిక్కి
-4.991457	ఉలిక్కిపడుతున్నారో
-4.815365	ఉలిక్కిపడ్డారు
-4.991457	ఉలేమాకు
-4.991457	ఉల్
-4.991457	ఉల్లంగిస్తూ
-4.815365	ఉల్లంఘన
-4.991457	ఉల్లంఘించడంతో
-4.991457	ఉల్లంఘించారని
-4.815365	ఉల్లంఘించి
-4.991457	ఉల్లంఘిస్తున్నారని
-4.991457	ఉల్లాసంగా
-4.991457	ఉల్లాసాలు
-4.514335	ఉల్లి
-4.991457	ఉల్లికి
-4.991457	ఉల్లిపాయల
-4.991457	ఉల్లిపాయలను
-4.815365	ఉల్లిపాయలు
-4.690426	ఉవ్వెత్తున
-4.991457	ఉషా
-4.991457	ఉషాగోకాని
-4.991457	ఉషానాథ్
-4.991457	ఉషాపతినే
-4.815365	ఉష్ణో
-4.991457	ఉష్ణోగ్రతల
-4.815365	ఉష్ణోగ్రతలు
-4.991457	ఉష్ణోగ్రతల్లో
-4.815365	ఉసురు
-4.991457	ఉసురుమనే
-4.991457	ఉసూరుమనిపించారని
-4.991457	ఉస్తేపల్లి
-4.338244	ఉస్మానియా
-4.991457	ఊచకోత
-4.815365	ఊడిపోతుందని
-4.991457	ఊడిపోతోందని
-4.991457	ఊడిపోయిందని
-4.815365	ఊడిపోవడం
-4.815365	ఊడ్చారు
-4.991457	ఊతం
-4.991457	ఊతపదాలు
-4.991457	ఊపందుకుంటాయని
-4.991457	ఊపందుకున్నాయనీ
-4.815365	ఊపందుకున్నాయి
-4.991457	ఊపందుకోలేదని
-4.991457	ఊపరపల్లి
-4.815365	ఊపరి
-4.815365	ఊపి
-4.991457	ఊపిన
-4.991457	ఊపిరాడకుండా
-4.991457	ఊపిరాడనివ్వడం
-4.389397	ఊపిరి
-4.991457	ఊపిరితిత్తుల
-4.991457	ఊపిరితిత్తులకు
-4.991457	ఊపిరితిత్తులు
-4.815365	ఊపిరిపీల్చుకున్న
-4.991457	ఊపిరిపీల్చుకున్నారు
-4.593516	ఊపు
-4.991457	ఊప్పు
-4.593516	ఊబిలో
-4.991457	ఊబిలోకి
-4.991457	ఊయలుఉపుతున్నది
-4.815365	ఊయ్యాలో
-4.514335	ఊరట
-4.991457	ఊరికి
-4.690426	ఊరికే
-4.815365	ఊరిని
-4.690426	ఊరిలో
-4.991457	ఊరిలోకి
-4.991457	ఊరిస్తున్నప్పటికీ
-4.251094	ఊరు
-4.991457	ఊరుకుంటామా
-4.991457	ఊరుకుంటు
-4.815365	ఊరుకుంటున్నారా
-4.292487	ఊరుకునేది
-4.690426	ఊరుకోమని
-4.991457	ఊరును
-4.991457	ఊరూరా
-4.815365	ఊరేగించగా
-4.593516	ఊరేగింపు
-4.991457	ఊరేగింపులో
-4.991457	ఊరేగుతున్న
-4.991457	ఊరేళ్లడంతో
-4.991457	ఊర్లను
-4.991457	ఊర్లు
-4.991457	ఊర్లో
-4.991457	ఊర్వశి
-4.991457	ఊళ్లో
-4.991457	ఊసెండి
-4.690426	ఊసే
-4.991457	ఊహకే
-4.991457	ఊహా
-4.991457	ఊహాగనాలు
-4.815365	ఊహాగానాలకు
-4.991457	ఊహాగానాలను
-4.088367	ఊహాగానాలు
-4.991457	ఊహాగానాలే
-4.991457	ఊహాచిత్రాన్ని
-4.991457	ఊహాత్మక
-4.991457	ఊహించడం
-4.815365	ఊహించని
-4.991457	ఊహించలేకపోయారని
-4.815365	ఊహించవచ్చు
-4.991457	ఊహించానని
-4.991457	ఊహించి
-4.991457	ఊహించింది
-4.815365	ఊహించినదాని
-4.991457	ఊహించుకోలేమని
-4.593516	ఊహించుకోవచ్చు
-4.991457	ఊహించే
-4.991457	ఋతు
-4.991457	ఋతుపవనాలు
-4.338244	ఎ
-4.447388	ఎం
-4.991457	ఎంగిలి
-4.991457	ఎంచుకుంటారా
-4.991457	ఎంచుకుంటుందని
-4.991457	ఎంచుకుంటున్నారు
-4.991457	ఎంచుకుందని
-4.815365	ఎంచుకుంది
-4.991457	ఎంచుకునే
-4.991457	ఎంచుకున్న
-4.991457	ఎంచుకున్నట్లుగా
-4.690426	ఎంచుకున్నాడు
-4.991457	ఎంచుకున్నారు
-4.991457	ఎంచుకొని
-4.991457	ఎంచుకోవాలి
-4.447388	ఎండ
-4.815365	ఎండగట్టడంలో
-4.690426	ఎండగట్టాలని
-4.815365	ఎండగట్టే
-4.991457	ఎండగాడూ
-4.991457	ఎండలకు
-4.815365	ఎండలు
-4.991457	ఎండల్లో
-4.991457	ఎండవేడిమికి
-4.991457	ఎండాకాలంలో
-4.991457	ఎండి
-4.991457	ఎండిపోతున్న
-4.991457	ఎండిపోతున్నాయి
-4.991457	ఎండిపోయాయని
-4.815365	ఎండిపోయి
-4.991457	ఎండిపోవడం
-4.593516	ఎండిపోవడంతో
-4.690426	ఎండీ
-4.991457	ఎండుకొబ్బరి
-4.991457	ఎండుగడ్డి
-4.991457	ఎండుగడ్డికి
-3.507157	ఎంత
-4.991457	ఎంతకివారైనా
-4.815365	ఎంతకీ
-4.991457	ఎంతగా
-4.991457	ఎంతగానే
-4.178543	ఎంతగానో
-4.991457	ఎంతచల్లగానో
-4.447388	ఎంతటి
-4.991457	ఎంతటికైనా
-4.991457	ఎంతటివారినైనా
-4.991457	ఎంతటివారైనా
-4.991457	ఎంతమంది
-4.991457	ఎంతమందికి
-4.815365	ఎంతమాత్రం
-4.514335	ఎంతవరకు
-4.991457	ఎంతవరకైనా
-4.991457	ఎంతసేపు
-4.991457	ఎంతుందో
-4.389397	ఎంతైనా
-3.411673	ఎంతో
-4.991457	ఎంతోకాలంగా
-4.991457	ఎంతోకొంతమేర
-4.447388	ఎందరో
-4.389397	ఎందుకంటే
-4.514335	ఎందుకని
-4.991457	ఎందుకన్నాడు
-4.815365	ఎందుకింత
-4.815365	ఎందుకిచ్చారో
-3.429164	ఎందుకు
-4.690426	ఎందుకో
-4.690426	ఎంపి
-3.950064	ఎంపిక
-4.815365	ఎంపికచేసిన
-4.991457	ఎంపికయ్యాడు
-4.991457	ఎంపికలో
-4.991457	ఎంపికి
-4.815365	ఎంపికైన
-4.991457	ఎంపిటిసీ
-4.991457	ఎంపిపై
-4.991457	ఎంపిలకే
-4.991457	ఎంపిలు
-4.991457	ఎంపిలైనా
-4.088367	ఎంపీ
-4.991457	ఎంపీకి
-4.815365	ఎంపీగా
-4.991457	ఎంపీని
-4.991457	ఎంపీపీ
-4.815365	ఎంపీలంతా
-4.991457	ఎంపీలందరూ
-4.991457	ఎంపీలకు
-4.690426	ఎంపీలతో
-4.991457	ఎంపీలను
-4.991457	ఎంపీలపై
-4.815365	ఎంపీలు
-4.991457	ఎంబసీలో
-4.991457	ఎంవిఐ
-4.991457	ఎంవీవీఎస్
-4.991457	ఎక
-4.991457	ఎకరం
-4.991457	ఎకరంలో
-4.991457	ఎకరము
-4.690426	ఎకరా
-4.690426	ఎకరాకు
-4.815365	ఎకరానికి
-4.116395	ఎకరాల
-4.447388	ఎకరాలకు
-4.815365	ఎకరాలను
-4.447388	ఎకరాలు
-4.062037	ఎకరాల్లో
-4.991457	ఎకె
-3.845328	ఎక్కడ
-4.991457	ఎక్కడపడితే
-4.013733	ఎక్కడా
-4.338244	ఎక్కడి
-4.815365	ఎక్కడికంటే
-4.991457	ఎక్కడికక్కడ
-4.991457	ఎక్కడికక్కడే
-4.991457	ఎక్కడికెళ్లిపోయిందో
-4.815365	ఎక్కడిదంటూ
-4.815365	ఎక్కడుందంటే
-4.991457	ఎక్కడుందో
-4.991457	ఎక్కడున్నా
-4.991457	ఎక్కడున్నారని
-4.991457	ఎక్కడున్నారో
-4.815365	ఎక్కడెకక్కడ
-4.815365	ఎక్కడెక్కడ
-4.991457	ఎక్కడేక్కడో
-4.991457	ఎక్కడైకైనా
-4.815365	ఎక్కడైతే
-4.447388	ఎక్కడైనా
-4.815365	ఎక్కడో
-4.991457	ఎక్కడ్నించో
-4.991457	ఎక్కారు
-4.690426	ఎక్కి
-4.991457	ఎక్కించాలని
-4.991457	ఎక్కించుకోనని
-4.991457	ఎక్కించుకోవడానికి
-4.991457	ఎక్కింది
-4.815365	ఎక్కిన
-4.991457	ఎక్కుతారని
-4.991457	ఎక్కుపట్టి
-4.991457	ఎక్కుపెట్టారు
-4.991457	ఎక్కుపెట్టే
-4.991457	ఎక్కుపెట్టేలా
-4.991457	ఎక్కుపెడుతున్నారు
-3.394859	ఎక్కువ
-3.544298	ఎక్కువగా
-4.447388	ఎక్కువగానే
-4.815365	ఎక్కువమంది
-4.991457	ఎక్కువమందిని
-4.815365	ఎక్కువయ్యాయని
-4.991457	ఎక్కువయ్యాయి
-4.815365	ఎక్కువే
-4.815365	ఎక్కువైంది
-4.991457	ఎక్కేందుకు
-4.991457	ఎక్కేవారిని
-4.815365	ఎక్కేసారు
-4.815365	ఎక్సైజ్
-4.991457	ఎక్స్క్లూజివ్
-4.991457	ఎగబడినప్పటికీ
-4.815365	ఎగబడుతున్నారు
-4.991457	ఎగరవేయడం
-4.991457	ఎగసిపడడంతో
-4.991457	ఎగిరి
-4.815365	ఎగిరింది
-4.991457	ఎగిరే
-4.991457	ఎగిరేసుకుపోతరు
-4.815365	ఎగిసింది
-4.991457	ఎగిసిపడ్డాయి
-4.991457	ఎగుమతవుతోంది
-4.991457	ఎగుమతుల
-4.815365	ఎగుమతులు
-4.991457	ఎగుమతుల్లో
-4.815365	ఎగుర
-4.991457	ఎగురవేయడంతో
-4.815365	ఎగురవేసి
-4.991457	ఎగురవేసినందుకు
-4.991457	ఎగురవేస్తున్న
-4.991457	ఎగురవేస్తూ
-4.389397	ఎగువ
-4.991457	ఎగువున
-4.815365	ఎగ్గొట్టడానికి
-4.815365	ఎజెండా
-4.991457	ఎజోర్
-4.991457	ఎటపాక
-4.991457	ఎటాచ్
-4.815365	ఎటిఎం
-4.991457	ఎటిఎంల
-4.593516	ఎటు
-3.930758	ఎటువంటి
-4.815365	ఎటూ
-4.593516	ఎటో
-4.593516	ఎట్టకేలకు
-4.251094	ఎట్టి
-4.815365	ఎట్లాంటి
-4.991457	ఎడ
-4.991457	ఎడతెరపి
-4.991457	ఎడతెరపిలేని
-4.447388	ఎడతెరిపి
-4.991457	ఎడమకాలి
-4.991457	ఎడారి
-4.991457	ఎడారిగా
-4.991457	ఎడ్ల
-4.991457	ఎడ్లు
-4.991457	ఎతో
-4.815365	ఎత్తడం
-4.991457	ఎత్తాలని
-4.690426	ఎత్తి
-4.991457	ఎత్తిచూపడాన్ని
-4.593516	ఎత్తిపోతల
-4.991457	ఎత్తివే
-4.991457	ఎత్తివేయలేదని
-4.991457	ఎత్తివేయాలని
-4.991457	ఎత్తివేశారు
-4.991457	ఎత్తివేసి
-4.593516	ఎత్తు
-4.815365	ఎత్తుకెళ్లిపోయారు
-4.991457	ఎత్తుకెళ్ళి
-4.991457	ఎత్తుకోక
-4.815365	ఎత్తుగడ
-4.991457	ఎత్తుగడగానే
-4.991457	ఎత్తుగడనే
-4.991457	ఎత్తుగడలు
-4.815365	ఎత్తుగడలో
-4.991457	ఎత్తుగానేఖజానా
-3.500095	ఎత్తున
-4.991457	ఎత్తుపల్లాలు
-4.815365	ఎత్తులో
-4.991457	ఎత్తేయడంతో
-4.991457	ఎత్తేయాలని
-4.991457	ఎత్తేసింది
-4.991457	ఎదగడం
-4.991457	ఎదగాడనికి
-4.815365	ఎదగాలని
-4.991457	ఎదగాలి
-4.991457	ఎదరువుతున్నాయని
-4.991457	ఎదిగామని
-4.991457	ఎదిగారనే
-4.991457	ఎదిగిన
-4.991457	ఎదిగిననాయకులు
-4.991457	ఎదిగే
-4.991457	ఎదిరించిది
-4.991457	ఎదుగుతానని
-4.991457	ఎదుగుతున్నాయన్నది
-4.991457	ఎదుగుతోందని
-4.991457	ఎదుగుదలకూడా
-4.815365	ఎదుగుదలను
-4.062037	ఎదుట
-4.991457	ఎదుటి
-4.991457	ఎదుటివారిపై
-4.991457	ఎదుటివారు
-4.593516	ఎదుటే
-4.991457	ఎదుడు
-4.991457	ఎదురయ్యే
-4.815365	ఎదురవుతాయని
-4.991457	ఎదురవుతాయి
-4.991457	ఎదురవుతుంటే
-4.991457	ఎదురవుతోంది
-4.991457	ఎదురాళ్లపాడు
-4.991457	ఎదురిచ్చిన
-4.991457	ఎదురీయడం
-3.930758	ఎదురు
-4.991457	ఎదురుఅవ్వడానికి
-4.690426	ఎదురుకాల్పుల్లో
-4.991457	ఎదురుకుంటున్నా
-4.991457	ఎదురుగ
-4.593516	ఎదురుగా
-4.991457	ఎదురుచూడవద్దు
-4.991457	ఎదురుచూపులు
-4.991457	ఎదురుచూసేలా
-4.991457	ఎదురుచూస్తున్న
-4.991457	ఎదురుచూస్తున్నట్లు
-4.991457	ఎదురుచూస్తున్నాడు
-4.593516	ఎదురుచూస్తున్నారు
-4.991457	ఎదురుదాడికి
-4.690426	ఎదురుదెబ్బ
-4.991457	ఎదురుపోయి
-4.991457	ఎదురులేదని
-4.815365	ఎదురైంది
-4.690426	ఎదురైతే
-4.690426	ఎదురైన
-4.447388	ఎదురైనా
-4.991457	ఎదుర్కుంటున్న
-4.991457	ఎదుర్కుంటున్నారు
-4.593516	ఎదుర్కుంటూనే
-4.991457	ఎదుర్కుంటోంది
-4.447388	ఎదుర్కునే
-4.991457	ఎదుర్కునేందామనే
-4.690426	ఎదుర్కున్న
-4.815365	ఎదుర్కున్నానని
-4.991457	ఎదుర్కొంటామని
-4.815365	ఎదుర్కొంటాయని
-4.991457	ఎదుర్కొంటు
-4.389397	ఎదుర్కొంటున్న
-4.991457	ఎదుర్కొంటున్నాడు
-4.991457	ఎదుర్కొంటున్నామన్నాడు
-4.593516	ఎదుర్కొంటున్నారని
-4.514335	ఎదుర్కొంటున్నారు
-4.690426	ఎదుర్కొంటోంది
-4.991457	ఎదుర్కొంది
-4.815365	ఎదుర్కొనే
-4.991457	ఎదుర్కొనేందుకు
-4.991457	ఎదుర్కొనేందుకైనా
-4.991457	ఎదుర్కొన్న
-4.991457	ఎదుర్కొన్నప్పటికీ
-4.991457	ఎదుర్కొన్నామని
-4.815365	ఎదుర్కొన్నారు
-4.815365	ఎదుర్కోక
-4.690426	ఎదుర్కోవడం
-4.991457	ఎదుర్కోవడంతో
-4.991457	ఎదుర్కోవడంలోనూ
-4.514335	ఎదుర్కోవడానికి
-4.991457	ఎదుర్కోవాలని
-4.991457	ఎదుర్కోవాలనే
-4.690426	ఎదుర్కోవాల్సి
-4.991457	ఎదుర్కోవాల్సిందే
-4.991457	ఎదైనా
-4.447388	ఎద్దడి
-3.930758	ఎద్దేవా
-4.593516	ఎనలేని
-4.991457	ఎనలేనివన్నారు
-4.815365	ఎనిమిదవ
-3.815365	ఎనిమిది
-4.815365	ఎనిమిదేళ్ల
-4.690426	ఎనిమిదో
-4.991457	ఎనిమియాతో
-4.338244	ఎన్
-4.991457	ఎన్జీవో
-4.514335	ఎన్టీ
-4.116395	ఎన్టీఆర్
-4.991457	ఎన్డీయే
-4.991457	ఎన్డీయేను
-4.991457	ఎన్డీయేలో
-4.991457	ఎన్డేయేకు
-4.991457	ఎన్నటికీ
-4.338244	ఎన్నడూ
-4.991457	ఎన్నడూలేని
-4.991457	ఎన్నారై
-3.830088	ఎన్ని
-4.991457	ఎన్నింటిని
-4.991457	ఎన్నింటినీ
-4.292487	ఎన్నిక
-4.690426	ఎన్నికయ్యారు
-4.991457	ఎన్నికయ్యే
-3.384001	ఎన్నికల
-4.991457	ఎన్నికలంటే
-3.970267	ఎన్నికలకు
-4.815365	ఎన్నికలను
-4.991457	ఎన్నికలపై
-4.514335	ఎన్నికలలో
-4.991457	ఎన్నికలా
-3.787337	ఎన్నికలు
-4.514335	ఎన్నికలో
-3.343096	ఎన్నికల్లో
-4.991457	ఎన్నికల్లోను
-4.991457	ఎన్నికల్లోనూ
-4.815365	ఎన్నికల్లోనే
-4.593516	ఎన్నికైన
-4.991457	ఎన్నిరకాల
-4.991457	ఎన్నిరకాలుగా
-4.815365	ఎన్నిసార్లు
-4.991457	ఎన్నిసార్లైనా
-4.991457	ఎన్నుకునేందుకు
-4.991457	ఎన్నుకున్నారు
-4.991457	ఎన్నుకోవాలి
-4.991457	ఎన్నెన్ని
-4.991457	ఎన్నైనా
-3.787337	ఎన్నో
-4.991457	ఎన్నోచేశామని
-4.815365	ఎన్నోసార్లు
-4.991457	ఎన్పీఏ
-4.213305	ఎపి
-4.514335	ఎపికి
-4.991457	ఎపిటిడిసి
-4.991457	ఎపిలో
-4.815365	ఎపీలో
-4.991457	ఎపుడు
-4.991457	ఎపుడూ
-4.690426	ఎప్పటి
-4.991457	ఎప్పటికప్పు
-3.930758	ఎప్పటికప్పుడు
-4.690426	ఎప్పటికి
-4.338244	ఎప్పటికీ
-4.815365	ఎప్పటికైనా
-4.991457	ఎప్పటిలాగానే
-4.991457	ఎప్పటిలాగే
-3.991457	ఎప్పుడు
-4.991457	ఎప్పుడుపుట్టిందో
-3.861123	ఎప్పుడూ
-4.991457	ఎప్పుడూలేని
-4.991457	ఎప్పుడెప్పుడు
-4.991457	ఎప్పుడెలా
-4.991457	ఎప్పుడైతే
-4.447388	ఎప్పుడైనా
-4.991457	ఎప్పుడో
-4.991457	ఎఫైర్స్
-4.991457	ఎఫ్
-4.991457	ఎఫ్ఐఆర్
-4.991457	ఎమర్జెన్సీని
-4.991457	ఎమలేయ్
-4.593516	ఎముకలు
-4.991457	ఎమైనయింటే
-4.815365	ఎమ్మార్
-4.991457	ఎమ్మార్వో
-4.991457	ఎమ్మిగనూరు
-3.669237	ఎమ్మెల్యే
-4.991457	ఎమ్మెల్యేకు
-4.815365	ఎమ్మెల్యేగా
-4.991457	ఎమ్మెల్యేపై
-4.690426	ఎమ్మెల్యేల
-4.815365	ఎమ్మెల్యేలందరినీ
-4.991457	ఎమ్మెల్యేలచే
-4.991457	ఎమ్మెల్యేలతో
-4.514335	ఎమ్మెల్యేలను
-4.991457	ఎమ్మెల్యేలలో
-4.062037	ఎమ్మెల్యేలు
-4.991457	ఎమ్మెల్యేలూ
-4.991457	ఎమ్మెల్యేలైనా
-4.991457	ఎమ్మెల్యేల్లో
-3.991457	ఎమ్మెల్సీ
-4.991457	ఎమ్మెల్సీగా
-4.991457	ఎమ్మెల్సీలు
-4.815365	ఎయిర్
-4.815365	ఎరత
-4.815365	ఎరతవరకు
-4.991457	ఎరుకుంటున్నారు
-4.991457	ఎరుగని
-4.991457	ఎరుపు
-4.991457	ఎరుపురంగు
-4.991457	ఎరుపులో
-4.815365	ఎరువుగా
-4.991457	ఎరువుల
-4.690426	ఎరువులు
-4.991457	ఎర్పడుతుందిడుతొన్న
-4.991457	ఎర్పాటు
-4.593516	ఎర్ర
-4.447388	ఎర్రచందనం
-4.991457	ఎర్రచందనంపై
-4.815365	ఎర్రచందనాన్ని
-4.447388	ఎర్రబెల్లి
-4.991457	ఎర్రవల్లి
-4.815365	ఎర్రిపప్పు
-4.815365	ఎలగైనా
-3.453637	ఎలా
-4.991457	ఎలాంంటిదో
-4.815365	ఎలాంట
-3.251094	ఎలాంటి
-4.815365	ఎలాగని
-4.991457	ఎలాగు
-4.991457	ఎలాగూ
-4.062037	ఎలాగైనా
-4.991457	ఎలాగోలా
-4.815365	ఎలుక
-4.991457	ఎలుకగా
-4.991457	ఎలుకల
-4.991457	ఎలుకలను
-4.991457	ఎలుకలు
-4.991457	ఎలెన్
-4.991457	ఎలెవన్
-4.815365	ఎల్
-4.991457	ఎల్టీటీఈ
-4.815365	ఎల్బీ
-4.991457	ఎల్లంపల్లి
-4.991457	ఎల్లకాలం
-4.991457	ఎల్లప్పుడూ
-4.815365	ఎల్లవేళలా
-4.991457	ఎల్లుండి
-4.991457	ఎల్విన్
-4.991457	ఎవరంటే
-4.991457	ఎవరంతకు
-4.815365	ఎవరని
-4.991457	ఎవరమూ
-4.013733	ఎవరి
-4.292487	ఎవరికి
-4.037214	ఎవరికీ
-4.991457	ఎవరికైతె
-4.991457	ఎవరికైన
-4.593516	ఎవరికైనా
-4.815365	ఎవరిచ్చారని
-4.991457	ఎవరితో
-4.815365	ఎవరితోనో
-4.991457	ఎవరిదన్న
-4.447388	ఎవరిని
-4.593516	ఎవరినీ
-4.991457	ఎవరినైనా
-4.991457	ఎవరినో
-4.991457	ఎవరిన్ని
-4.116395	ఎవరు
-4.991457	ఎవరున్నారని
-4.991457	ఎవరున్నారనేది
-4.815365	ఎవరున్నారో
-3.649034	ఎవరూ
-4.815365	ఎవరెన్ని
-4.991457	ఎవరెవరిని
-4.991457	ఎవరెవరు
-4.991457	ఎవరేమన్నా
-4.991457	ఎవరైతే
-4.037214	ఎవరైనా
-4.251094	ఎవరో
-4.991457	ఎవిడెన్స్
-4.991457	ఎవ్వరిని
-4.815365	ఎవ్వరు
-4.991457	ఎసరు
-4.991457	ఎసిపి
-4.447388	ఎసిబి
-4.690426	ఎస్
-4.991457	ఎస్టీ
-4.991457	ఎస్టేట్
-4.991457	ఎస్పి
-4.514335	ఎస్పీ
-4.991457	ఎస్పీఎస్
-4.991457	ఎస్వీ
-4.991457	ఎస్సార్సీయేశరణ్యమన్న
-4.991457	ఎస్సీ
-4.991457	ఎస్సీలకు
-4.815365	ఎస్సై
-3.091089	ఏ
-3.405996	ఏం
-4.991457	ఏంజేల్స్
-4.991457	ఏంటంటే
-4.991457	ఏంటనే
-4.991457	ఏంటో
-4.991457	ఏఈఈ
-4.991457	ఏఐ
-4.991457	ఏఐటియుసి
-4.991457	ఏఐసిసి
-4.991457	ఏఒబీలో
-4.991457	ఏకం
-4.251094	ఏకంగా
-4.815365	ఏకగ్రీవం
-4.815365	ఏకగ్రీవంగా
-4.815365	ఏకపక్ష
-4.991457	ఏకపక్షం
-4.815365	ఏకపక్షంగా
-4.991457	ఏకమయ్యాయి
-4.991457	ఏకమై
-4.690426	ఏకరువు
-4.815365	ఏకాంతంగా
-4.815365	ఏకాగ్రత
-4.514335	ఏకాదశి
-4.991457	ఏకాభిప్రాయం
-4.991457	ఏకీభవించినట్లుగా
-4.593516	ఏకైక
-4.991457	ఏజీని
-4.991457	ఏజెన్సీ
-4.690426	ఏజెన్సీలు
-4.991457	ఏజెన్సీలో
-4.514335	ఏటా
-4.991457	ఏటికి
-4.991457	ఏటిగడ్డపాలెం
-4.991457	ఏటీఎంలో
-4.991457	ఏటూరునాగారం
-4.815365	ఏటేటా
-4.991457	ఏడవడం
-4.690426	ఏడాదంతా
-4.991457	ఏడాదయ్యింది
-3.267181	ఏడాది
-4.991457	ఏడాదికి
-4.991457	ఏడాదికీ
-4.991457	ఏడాదితో
-4.690426	ఏడాదిన్నర
-4.690426	ఏడాదిన్నరలో
-4.815365	ఏడాదిలో
-4.991457	ఏడాదిలోగా
-4.815365	ఏడాదిలోపు
-4.815365	ఏడాదీ
-3.861123	ఏడు
-4.991457	ఏడుకొండలవాడిని
-4.991457	ఏడుగురాళ్లపల్లి
-4.815365	ఏడుగురి
-4.389397	ఏడుగురు
-4.991457	ఏడున్నర
-4.815365	ఏడుపాయల
-4.991457	ఏడుపాయలు
-4.991457	ఏడువందల
-4.815365	ఏడుస్తున్నారో
-4.991457	ఏడుస్తూ
-4.991457	ఏడెఎనిమిది
-4.991457	ఏడే
-4.690426	ఏడేళ్ల
-4.991457	ఏడేళ్లలో
-4.593516	ఏడో
-4.991457	ఏడ్చుకుంటూ
-4.991457	ఏడ్పాటు
-4.991457	ఏదా
-4.389397	ఏది
-4.338244	ఏదీ
-4.815365	ఏదేమైనా
-4.116395	ఏదైనా
-3.830088	ఏదో
-4.991457	ఏనాడు
-4.514335	ఏనాడూ
-4.991457	ఏనాడో
-4.593516	ఏనుగు
-4.815365	ఏనుగుని
-4.690426	ఏనుగుల
-4.815365	ఏనుగులు
-4.991457	ఏపకి
-4.593516	ఏపి
-4.991457	ఏపిఐసీఐఐసి
-4.815365	ఏపికి
-4.991457	ఏపిలో
-4.991457	ఏపిలోకి
-3.544298	ఏపీ
-3.894547	ఏపీకి
-4.991457	ఏపీతో
-4.991457	ఏపీని
-4.991457	ఏపీపీఎస్సీకి
-4.389397	ఏపీలో
-4.690426	ఏపీలోని
-4.815365	ఏపీసీసీ
-4.690426	ఏప్రిల్
-4.991457	ఏమంటారని
-4.690426	ఏమంటే
-4.991457	ఏమంత
-4.991457	ఏమన్నా
-4.991457	ఏమన్నాడు
-4.991457	ఏమయిపోతోందని
-4.991457	ఏమయ్యాయని
-4.991457	ఏమవుతుందనే
-4.991457	ఏమవుతుందో
-4.991457	ఏమాత్ర
-3.950064	ఏమాత్రం
-4.991457	ఏమాత్రమూ
-4.991457	ఏమాయలో
-4.338244	ఏమి
-4.991457	ఏమిటంటూ
-4.292487	ఏమిటని
-4.991457	ఏమిటనే
-4.514335	ఏమిటనేది
-4.815365	ఏమిటన్న
-4.991457	ఏమిటన్నది
-4.815365	ఏమిటన్నారు
-4.593516	ఏమిటి
-4.593516	ఏమిటో
-4.991457	ఏమిలేదని
-4.815365	ఏమిస్తుందనే
-3.930758	ఏమీ
-4.991457	ఏమీలేదు
-4.991457	ఏముందని
-4.815365	ఏముందో
-4.815365	ఏమేరకు
-4.514335	ఏమైందో
-4.062037	ఏమైనా
-4.690426	ఏమో
-4.991457	ఏయితే
-4.991457	ఏయే
-4.815365	ఏరి
-4.991457	ఏరియల్
-4.815365	ఏరియా
-4.991457	ఏరివేయడానికి
-4.991457	ఏరుకుంటూ
-4.991457	ఏరోజు
-4.690426	ఏర్పడకుండా
-4.991457	ఏర్పడటంతో
-4.991457	ఏర్పడడంతో
-4.991457	ఏర్పడాయి
-4.991457	ఏర్పడి
-4.815365	ఏర్పడిందని
-4.815365	ఏర్పడిందన్నారు
-3.970267	ఏర్పడింది
-4.815365	ఏర్పడితే
-3.950064	ఏర్పడిన
-4.991457	ఏర్పడినట్లు
-4.991457	ఏర్పడినప్పుడు
-4.991457	ఏర్పడినా
-4.991457	ఏర్పడు
-4.593516	ఏర్పడుతుందని
-4.991457	ఏర్పడుతుందనే
-4.991457	ఏర్పడుతుందన్న
-4.991457	ఏర్పడుతుంది
-4.991457	ఏర్పడుతున్న
-4.815365	ఏర్పడుతున్నాయి
-4.991457	ఏర్పడుతూ
-4.991457	ఏర్పడుతోంది
-4.338244	ఏర్పడే
-4.815365	ఏర్పడ్డ
-4.991457	ఏర్పడ్డాడని
-4.991457	ఏర్పడ్డానేది
-4.815365	ఏర్పడ్డాయని
-4.991457	ఏర్పడ్డాయన్నారు
-4.815365	ఏర్పడ్డాయి
-4.690426	ఏర్పడ్డారు
-4.991457	ఏర్పడ్తే
-4.815365	ఏర్పరచుకుని
-4.991457	ఏర్పరుచుకుంటానని
-4.991457	ఏర్పాటయ్యాయి
-4.991457	ఏర్పాటవుతుందని
-4.991457	ఏర్పాటవుతున్నాయి
-4.991457	ఏర్పాటవుతూనే
-2.921419	ఏర్పాటు
-3.950064	ఏర్పాటుకు
-4.991457	ఏర్పాటుకే
-4.514335	ఏర్పాటుచేసిన
-4.991457	ఏర్పాటుతోనే
-4.338244	ఏర్పాటును
-4.593516	ఏర్పాటుపై
-4.991457	ఏర్పాటులో
-4.593516	ఏర్పాటైన
-4.815365	ఏర్పాట్ల
-4.991457	ఏర్పాట్లకు
-4.690426	ఏర్పాట్లను
-4.991457	ఏర్పాట్లనూ
-4.991457	ఏర్పాట్లన్ని
-4.815365	ఏర్పాట్లపై
-4.991457	ఏర్పాట్లలో
-3.544298	ఏర్పాట్లు
-4.991457	ఏలా
-4.514335	ఏలియన్స్
-4.991457	ఏలియా
-4.447388	ఏలూరు
-4.991457	ఏలూరుకు
-4.991457	ఏలూరుతోపాటు
-4.991457	ఏలూరులోని
-4.991457	ఏల్
-4.447388	ఏళ్ల
-4.690426	ఏళ్ళ
-4.991457	ఏవ
-4.991457	ఏవగింపు
-4.991457	ఏవగింపుగా
-4.593516	ఏవిధంగా
-4.991457	ఏసిబి
-4.991457	ఏసీఏ
-4.991457	ఏసీపీ
-4.690426	ఏసీబీ
-4.991457	ఏసుక్రీస్తు
-4.991457	ఏహ్యభావం
-4.991457	ఏహ్యభావన
-4.690426	ఐ
-4.991457	ఐఎస్
-4.991457	ఐఎస్ఐఎస్
-4.991457	ఐఏసి
-4.815365	ఐకాస
-4.991457	ఐకాసలతో
-4.251094	ఐక్య
-4.447388	ఐక్యంగా
-4.815365	ఐక్యత
-4.991457	ఐక్యతకు
-4.815365	ఐక్యతా
-4.991457	ఐక్యపోరాటాలకు
-4.815365	ఐక్యరాజ్యసమితి
-4.991457	ఐక్యరాజ్యసమితితో
-4.991457	ఐక్యవేదిక
-4.815365	ఐటి
-4.991457	ఐటిఐ
-4.991457	ఐటిడిఎ
-4.593516	ఐటీ
-4.991457	ఐడి
-4.991457	ఐడియా
-4.991457	ఐడీ
-4.991457	ఐడీహెచ్
-4.447388	ఐతే
-4.991457	ఐదారు
-3.584916	ఐదు
-4.815365	ఐదుగురి
-4.991457	ఐదుగురిని
-4.088367	ఐదుగురు
-4.991457	ఐదుగురూ
-4.991457	ఐదురోజులపాటు
-4.991457	ఐదువందల
-4.447388	ఐదువేల
-4.815365	ఐదేండ్ల
-4.447388	ఐదేళ్ల
-4.690426	ఐదేళ్లలో
-4.815365	ఐదేళ్లు
-4.991457	ఐదేళ్ళ
-4.991457	ఐదేళ్ళలో
-4.447388	ఐదో
-4.815365	ఐదోవంతు
-4.146358	ఐద్వా
-4.991457	ఐద్వార్
-4.991457	ఐనవిల్లి
-4.991457	ఐనవోలు
-4.991457	ఐన్
-4.991457	ఐపియల్
-4.991457	ఐపీఎస్
-4.991457	ఐఫోన్
-4.991457	ఐబిఏ
-4.991457	ఐయామ్
-4.815365	ఐర్లాండ్
-4.815365	ఐశ్వర్య
-4.991457	ఐసిస్
-4.991457	ఐసిస్ఉగ్రవాదులు
-4.991457	ఐసీసీ
-4.991457	ఒ
-4.389397	ఒంగోలు
-4.991457	ఒంగోలుకు
-4.690426	ఒంగోలులో
-4.213305	ఒంటరి
-4.116395	ఒంటరిగా
-4.991457	ఒంటరిగాకాకుండా
-4.991457	ఒంటరిగానే
-4.991457	ఒంటరివాళ్లు
-4.593516	ఒంటి
-4.815365	ఒంటిగంట
-4.815365	ఒంటిపై
-4.593516	ఒంటిమిట్ట
-4.991457	ఒంటిమిట్టలో
-4.991457	ఒంటిమిట్టలోని
-4.991457	ఒంటెత్తు
-3.004685	ఒక
-3.724285	ఒకటి
-4.991457	ఒకటికావడం
-4.991457	ఒకటికి
-4.991457	ఒకటీ
-4.991457	ఒకటే
-4.991457	ఒకటైతే
-4.815365	ఒకటైన
-4.690426	ఒకటో
-4.991457	ఒకట్రెండు
-4.991457	ఒకడని
-4.991457	ఒకడిగా
-4.991457	ఒకడిని
-4.991457	ఒకడైన
-4.991457	ఒకతేదీని
-4.991457	ఒకదశపు
-4.991457	ఒకదాన్ని
-4.991457	ఒకపధకనే
-4.593516	ఒకప్పుడు
-4.146358	ఒకరి
-4.447388	ఒకరికి
-4.690426	ఒకరికొకరు
-4.991457	ఒకరిద్దరికి
-4.991457	ఒకరిద్దరు
-4.447388	ఒకరిని
-4.593516	ఒకరిపై
-4.013733	ఒకరు
-4.991457	ఒకరుగా
-4.815365	ఒకరైన
-4.815365	ఒకరోజు
-4.991457	ఒకర్ని
-4.251094	ఒకవేళ
-4.292487	ఒకవైపు
-4.991457	ఒకవైపున
-4.815365	ఒకశాతం
-4.690426	ఒకసారి
-4.991457	ఒకాపుడు
-4.690426	ఒకింత
-3.815365	ఒకే
-4.991457	ఒకేఒక్కడు
-4.991457	ఒకేచోట
-4.991457	ఒకేతీరుగా
-4.991457	ఒకేరోజు
-4.447388	ఒకేలా
-4.447388	ఒకేసారి
-4.991457	ఒకొక్కరికి
-3.500095	ఒక్క
-4.991457	ఒక్కగానొక్క
-4.991457	ఒక్కటవుతారా
-4.991457	ఒక్కటవుతున్నట్లుగా
-4.593516	ఒక్కటి
-4.815365	ఒక్కటిగా
-4.991457	ఒక్కటిన్నారు
-4.991457	ఒక్కటీ
-4.991457	ఒక్కటే
-4.991457	ఒక్కటై
-4.815365	ఒక్కటొక్కటిగా
-4.690426	ఒక్కడే
-4.991457	ఒక్కడై
-4.991457	ఒక్కదాన్నీ
-4.991457	ఒక్కమాట
-4.991457	ఒక్కరికి
-4.514335	ఒక్కరికీ
-4.991457	ఒక్కరిని
-4.991457	ఒక్కరినీ
-4.991457	ఒక్కరిలోనూ
-4.292487	ఒక్కరు
-4.178543	ఒక్కరూ
-4.815365	ఒక్కరే
-4.389397	ఒక్కసారి
-3.930758	ఒక్కసారిగా
-4.991457	ఒక్కసారైనా
-4.991457	ఒక్కొక్కరికీ
-4.991457	ఒక్కొక్కరిది
-4.991457	ఒక్కొక్కరిని
-4.690426	ఒక్కొక్కరు
-4.178543	ఒక్కో
-4.991457	ఒక్కోక్కరిని
-4.815365	ఒక్కోసారి
-4.991457	ఒగ్గుడోలు
-4.991457	ఒడంబడిక
-4.815365	ఒడి
-4.815365	ఒడిగట్టాడు
-4.991457	ఒడిగట్టినట్లు
-4.815365	ఒడిదుడుకులకు
-4.991457	ఒడిదొడుకులకు
-4.991457	ఒడియా
-4.991457	ఒడిలో
-4.292487	ఒడిశా
-4.991457	ఒడిశాను
-4.991457	ఒడిశాలోగల
-4.991457	ఒడుతున్నట్లు
-4.991457	ఒడ్డుకు
-3.384001	ఒత్తిడి
-4.514335	ఒత్తిడికి
